#include <math.h>
#include <string.h>
#include "./include/k2c_include.h"
#include "./include/k2c_tensor_include.h"




void example(k2c_tensor* input_1_input, k2c_tensor* dense_3_output) {

    float dense_1_output_array[160] = {0};
    k2c_tensor dense_1_output = {&dense_1_output_array[0],2,160,{ 8,20, 1, 1, 1}};
    float dense_1_kernel_array[640] = {
        1.84597626e-01,3.38460326e-01,-2.34645858e-01,8.41540694e-02,3.24478477e-01,
        8.58754277e-01,-7.13661918e-03,-4.92343426e-01,-6.44574389e-02,-3.13293874e-01,
        5.19761682e-01,-2.74241477e-01,2.02252164e-01,-2.34853938e-01,5.40227830e-01,
        -2.77907550e-01,2.47403741e-01,1.21170068e-02,-2.60656238e-01,-4.60036658e-02,
        -7.82440186e-01,1.27565980e-01,-7.38170385e-01,-2.56730139e-01,-1.57303642e-02,
        -3.99571419e-01,-5.39261341e-01,3.03606987e-01,-1.16688207e-01,4.22591865e-01,
        -8.00725818e-03,-6.21814191e-01,1.96536660e-01,-1.22103460e-01,-5.14253259e-01,
        4.54981253e-02,1.33489907e-01,-2.51421444e-02,-1.41983569e+00,-1.23114455e-02,
        -9.81750563e-02,-6.81132853e-01,1.22405306e-01,-4.66315061e-01,2.04547048e-01,
        -1.82162642e-01,-4.59956706e-01,1.65646940e-01,1.03811264e-01,-7.72828534e-02,
        8.47725049e-02,8.43117908e-02,3.92418772e-01,-1.32725134e-01,2.19648346e-01,
        -7.31516071e-03,-3.78975600e-01,-2.31727406e-01,-1.36293784e-01,1.67691886e-01,
        -1.99633420e-01,-8.74414980e-01,-3.78869563e-01,-1.54691339e-01,-4.89732288e-02,
        -1.03846453e-01,-4.29478198e-01,2.04583913e-01,-2.41506055e-01,-2.34535530e-01,
        2.55705446e-01,-1.57211676e-01,2.02019751e-01,-3.70720923e-01,-2.54141122e-01,
        -7.88946971e-02,1.19484708e-01,-1.87288314e-01,2.16624454e-01,-3.56809229e-01,
        9.80797783e-02,-7.51344919e-01,-1.55681791e-02,-5.64432330e-02,1.45107865e-01,
        -2.10421398e-01,-5.07155001e-01,3.56640667e-02,-3.35488349e-01,-2.90099204e-01,
        -1.25086546e-01,1.31112471e-01,-1.50571793e-01,1.13868855e-01,1.97421268e-01,
        3.41620594e-01,-4.27098662e-01,-3.22933674e-01,-3.04376427e-02,2.13521674e-01,
        3.20149153e-01,-8.41009974e-01,-3.28266889e-01,-1.33974060e-01,3.37950140e-01,
        -7.65457749e-02,-8.88454318e-02,3.20818484e-01,2.02135801e-01,-2.00746998e-01,
        -1.37446180e-01,-4.35954705e-02,-1.89469114e-01,-1.87283650e-01,-1.49160102e-01,
        -6.97966218e-02,-3.99019241e-01,-4.46058214e-01,-4.65215504e-01,7.83488452e-02,
        2.55989015e-01,-6.66209340e-01,-2.97757313e-02,5.73988333e-02,3.12146127e-01,
        -1.49357736e-01,-1.17688987e-03,-3.15611929e-01,-6.53313994e-02,2.19082236e-01,
        1.80438340e-01,9.84446183e-02,3.60679448e-01,-1.77210290e-02,1.17948301e-01,
        3.51204604e-01,5.91138862e-02,-5.58767319e-01,-3.72861743e-01,-3.36612016e-01,
        2.51461804e-01,-6.98710263e-01,-3.30899864e-01,-5.12372665e-02,1.60135642e-01,
        -2.48099133e-01,1.13164326e-02,2.45305017e-01,3.30988377e-01,-4.05862421e-01,
        1.86781306e-02,1.80102080e-01,1.40007451e-01,-3.06531668e-01,-3.88416708e-01,
        1.07274726e-01,-4.15835351e-01,-3.12873304e-01,6.00270964e-02,-1.30102739e-01,
        -2.91709960e-01,-6.87938094e-01,-5.21389879e-02,-2.68085629e-01,-1.69578582e-01,
        -3.20077956e-01,-4.13440347e-01,1.49832651e-01,-3.20970006e-02,-5.39456960e-03,
        2.06135839e-01,-2.09766671e-01,4.13153231e-01,-1.66270897e-01,-2.57255971e-01,
        2.22905591e-01,-3.46261859e-01,3.20605129e-01,-4.27771777e-01,1.16981193e-01,
        2.52395988e-01,-3.44217777e-01,-6.66737929e-02,-4.86955829e-02,2.70391166e-01,
        1.37561023e-01,-3.90485644e-01,2.79914051e-01,3.84406954e-01,1.20441236e-01,
        2.04264805e-01,8.26733485e-02,-1.15803517e-01,-8.06908682e-02,-1.36672184e-01,
        5.24246693e-01,-5.28812468e-01,-6.93294331e-02,-3.18034321e-01,9.39518213e-02,
        -2.94963419e-01,-2.44058609e-01,3.04083258e-01,-2.11372748e-02,2.89001614e-01,
        1.08439513e-01,-9.23840925e-02,-1.70054972e-01,-1.90566421e-01,3.66985798e-02,
        3.22338231e-02,-3.74111921e-01,-1.02120772e-01,-2.39766657e-01,1.94599591e-02,
        1.55583873e-01,-2.86474854e-01,-5.65753579e-02,-2.44060323e-01,-3.40938777e-01,
        8.01816806e-02,-3.53514969e-01,2.46418297e-01,2.42808133e-01,-3.72168496e-02,
        1.13889560e-01,7.40337325e-03,-3.69791955e-01,-1.94191411e-01,-1.23830877e-01,
        -9.50518548e-02,-8.36525783e-02,2.22289994e-01,-1.21149801e-01,-6.12733811e-02,
        2.77173549e-01,-2.44573727e-01,2.60834843e-01,-4.49586481e-01,-2.57468164e-01,
        1.43448472e-01,-6.98960125e-01,3.42417300e-01,3.61474842e-01,-3.84393215e-01,
        3.08944941e-01,-4.27045971e-01,-1.94489762e-01,9.58373621e-02,-1.46163628e-01,
        -2.80864704e-02,1.57927107e-02,2.32905090e-01,3.14805150e-01,-5.60301580e-02,
        5.89602649e-01,-4.27352011e-01,1.13111734e-01,-3.46376896e-01,-5.28623462e-01,
        -2.98301518e-01,-6.90557897e-01,2.73444094e-02,3.43018591e-01,-3.60061198e-01,
        2.60902345e-01,-3.27625185e-01,1.00608237e-01,-1.93690196e-01,-3.15058976e-03,
        -8.81675258e-02,-8.28565508e-02,-5.41044958e-02,-3.34015042e-01,-3.97145063e-01,
        2.70325452e-01,-4.82885838e-01,1.66337177e-01,3.03864151e-01,-4.49233264e-01,
        -4.70493853e-01,-5.95323205e-01,3.05609792e-01,-1.34509906e-01,-1.52632490e-01,
        -2.60174535e-02,2.69823551e-01,-4.08100754e-01,-5.88500440e-01,7.40702301e-02,
        -3.39842916e-01,1.34839818e-01,-3.89211476e-01,-2.39073262e-01,-6.10363305e-01,
        6.76074147e-01,-1.65102601e-01,-5.88119328e-01,1.27297938e-01,-5.06896198e-01,
        -5.56533158e-01,8.53410885e-02,4.01872814e-01,1.65610686e-01,-2.66129702e-01,
        3.35736006e-01,3.22044119e-02,1.22413374e-02,-9.63872075e-01,-3.03885937e-01,
        -1.41148672e-01,-3.48355696e-02,1.02601245e-01,-1.18531898e-01,-1.20500483e-01,
        5.79709828e-01,-2.77708799e-01,-4.20837313e-01,4.97944981e-01,-3.32677692e-01,
        -6.61621928e-01,-4.10107553e-01,1.18384145e-01,2.06842870e-01,-2.53313988e-01,
        -1.85733605e-02,-5.46767900e-04,-2.20331803e-01,-7.44520009e-01,5.36430888e-02,
        -2.27126684e-02,-6.82973802e-01,-1.74919501e-01,-2.73955166e-01,-2.42445201e-01,
        5.52316725e-01,-7.96833813e-01,-5.78653514e-01,2.08906278e-01,-4.28064823e-01,
        -5.75796723e-01,7.77822733e-02,2.96846837e-01,1.36573121e-01,4.42782313e-01,
        -7.09932223e-02,-5.96912205e-02,-3.39504808e-01,-7.21911252e-01,-1.25955902e-02,
        1.78176463e-01,-1.52056679e-01,-1.40138790e-01,-4.24587214e-03,-7.35704303e-02,
        3.60837966e-01,-6.31088376e-01,2.76325464e-01,2.39698887e-01,-4.43561614e-01,
        -3.77456754e-01,-1.77074462e-01,8.36198479e-02,1.24633081e-01,-4.05167043e-02,
        -5.74136153e-03,-1.13185935e-01,-3.26456457e-01,-4.71137613e-01,-4.51317638e-01,
        1.19651131e-01,-3.13224316e-01,-1.85710922e-01,-5.17716631e-02,-1.16481714e-01,
        4.77186590e-01,-7.88894594e-01,1.84446976e-01,-2.81872656e-02,-5.74078977e-01,
        -4.90260214e-01,-7.92540908e-02,-1.56473607e-01,2.22979635e-01,1.74370073e-02,
        -2.42376000e-01,1.62469417e-01,-1.70996860e-01,8.07208791e-02,-4.14670169e-01,
        1.88245941e-02,-2.67500192e-01,-7.70409852e-02,-4.14914228e-02,-5.31020284e-01,
        4.97337401e-01,-5.75815365e-02,3.48201301e-03,-1.53884158e-01,-3.98986250e-01,
        1.59110203e-01,-1.23282492e-01,1.23641804e-01,2.10833400e-01,2.67163873e-01,
        5.69908768e-02,-1.60297126e-01,7.66827017e-02,-7.12985545e-02,2.72152051e-02,
        -1.67180002e-01,8.78296420e-02,-7.87689611e-02,-5.42895030e-03,-8.02954361e-02,
        3.91766161e-01,-2.08245113e-01,-3.47421736e-01,-3.21272701e-01,-5.90304732e-01,
        2.08633482e-01,2.18703762e-01,3.09936523e-01,-4.19192284e-01,-4.67881203e-01,
        3.61359417e-01,2.17119411e-01,4.00049418e-01,7.50266463e-02,3.68740767e-01,
        6.68704212e-02,-2.31569096e-01,-6.47686124e-02,-3.36313158e-01,2.18480766e-01,
        6.85141921e-01,-5.42013705e-01,-2.37186313e-01,-1.84541941e-01,-3.50256264e-02,
        9.27869603e-02,3.94565910e-01,1.14764936e-01,-3.43626708e-01,-9.49048474e-02,
        2.35523567e-01,2.47321531e-01,8.13850537e-02,4.29043829e-01,1.30789846e-01,
        -1.28051825e-02,3.45507205e-01,3.72287661e-01,-2.50864983e-01,2.09724814e-01,
        1.91793710e-01,-5.06037235e-01,-2.01477095e-01,-2.45532036e-01,-4.06737506e-01,
        3.85653019e-01,-8.50727260e-02,2.28950545e-01,1.37282923e-01,-2.09429085e-01,
        1.67999968e-01,2.15400815e-01,-4.51598763e-02,6.19290233e-01,3.49720359e-01,
        -3.45307738e-01,9.18501988e-02,6.47007525e-02,-1.58995807e-01,1.06713876e-01,
        3.10338974e-01,-4.97529507e-02,-4.25240815e-01,1.07472651e-01,-2.48844158e-02,
        2.84603924e-01,1.46269072e-02,-1.27685353e-01,-1.84511952e-02,1.14536332e-02,
        5.41183770e-01,4.16624069e-01,-1.47798479e-01,4.91290987e-01,-2.85609812e-01,
        1.57992274e-01,2.53099233e-01,3.08456481e-01,-1.95496410e-01,-2.62811989e-01,
        -8.98219366e-03,4.87123393e-02,-5.34242213e-01,3.05122763e-01,-2.35747218e-01,
        2.63689518e-01,3.92164499e-01,3.00828785e-01,-1.24010019e-01,-9.20934975e-02,
        -1.98921636e-01,4.37065929e-01,-1.00659998e-02,5.37079871e-01,5.72076850e-02,
        -2.49691337e-01,1.67972222e-01,2.84363061e-01,-1.17632657e-01,8.97634923e-02,
        1.07008561e-01,5.23257218e-02,-2.88263023e-01,8.72962624e-02,-2.58687854e-01,
        -4.24050987e-02,3.17130424e-03,1.77895874e-01,-3.83567885e-02,-1.73069477e-01,
        -1.30523831e-01,-1.26109853e-01,-8.34032297e-02,1.26655802e-01,-1.98923707e-01,
        2.17940494e-01,2.48563662e-01,1.25878945e-01,-3.66266996e-01,-2.76592933e-02,
        -5.48488870e-02,1.90339819e-01,-3.77052248e-01,-1.16338328e-01,-2.91208737e-02,
        3.27491522e-01,3.16295475e-01,1.11694504e-02,-1.73305914e-01,9.49808210e-02,
        3.00533682e-01,2.86841869e-01,1.78613111e-01,-3.43051076e-01,1.13306850e-01,
        -8.08487609e-02,2.42087483e-01,1.30137771e-01,-3.24250236e-02,-7.01280534e-02,
        -1.66305140e-01,1.86324924e-01,-3.91374916e-01,-3.55659313e-02,1.22869581e-01,
        -1.35800987e-01,2.58985937e-01,-2.03549638e-01,1.62826493e-01,-3.86340842e-02,
        -3.80578816e-01,3.25139351e-02,-3.49063091e-02,-3.99616033e-01,1.01423413e-01,
        2.28139132e-01,-2.45839596e-01,1.99794695e-01,4.81280386e-02,7.56389722e-02,
        -5.30389436e-02,1.59274161e-01,1.49140239e-01,-7.55548775e-02,4.95326854e-02,
        1.94049492e-01,-2.67713130e-01,-5.96058145e-02,-7.58737102e-02,6.44396469e-02,
        7.37952739e-02,3.70722115e-02,1.23523898e-01,-3.36539596e-01,-3.29653472e-01,
        1.23162106e-01,-2.20468432e-01,3.18539470e-01,-5.57046890e-01,3.74107547e-02,
        -1.03209987e-02,2.52839833e-01,-9.62055102e-02,3.06356847e-02,-2.30297476e-01,
        -4.90552634e-02,-1.87938094e-01,-3.57689500e-01,-3.15735012e-01,-3.71657349e-02,
        -1.90046608e-01,4.85537916e-01,3.73564214e-01,-6.73014283e-01,-7.10245520e-02,
        4.57633510e-02,-2.56870508e-01,2.95803100e-01,-2.76495606e-01,-3.91692184e-02,
        2.54064620e-01,2.54241619e-02,5.01704693e-01,-1.87989935e-01,3.86168365e-04,
        -2.36790702e-01,-5.49607277e-01,-6.62888959e-02,-1.85018614e-01,-5.35962224e-01,
        6.24881163e-02,-1.52902409e-01,-7.19516054e-02,-8.04738760e-01,6.72987252e-02,
        4.51819301e-01,-3.94171953e-01,2.58477986e-01,-5.94110310e-01,1.93057388e-01,
        -5.59505038e-02,-5.83763607e-02,3.57307911e-01,6.69601858e-02,2.28760228e-01,
    };
    k2c_tensor dense_1_kernel = {&dense_1_kernel_array[0],2,640,{32,20, 1, 1, 1}};
    float dense_1_bias_array[20] = {
        1.52786329e-01,9.85919386e-02,2.33240902e-01,-9.38442290e-01,-2.42720366e-01,
        -4.09137398e-01,-3.72782677e-01,-5.05851686e-01,-1.51941970e-01,-5.73505163e-01,
        -1.03000855e+00,-2.37680435e-01,-5.29850423e-01,1.86984837e-01,-7.20031619e-01,
        5.02754375e-02,-4.15382981e-01,-6.22243434e-02,3.00392330e-01,-3.71174216e-02,
    };
    k2c_tensor dense_1_bias = {&dense_1_bias_array[0],1,20,{20, 1, 1, 1, 1}};
    float dense_1_fwork[896] = {0};


    float dense_2_output_array[160] = {0};
    k2c_tensor dense_2_output = {&dense_2_output_array[0],2,160,{ 8,20, 1, 1, 1}};
    float dense_2_kernel_array[400] = {
        -1.51011437e-01,1.07105874e-01,-1.16542108e-01,3.22569191e-01,-2.35220149e-01,
            -4.13900167e-01,-2.51489803e-02,3.37199718e-01,-2.52846897e-01,-1.40365288e-01,
            1.88877046e-01,1.84383318e-01,-8.36210027e-02,1.75858617e-01,-4.24977131e-02,
            -5.48578084e-01,5.54992110e-02,-9.64317262e-01,-1.66595653e-01,-5.56941271e-01,
            1.14008382e-01,2.04639509e-01,-7.18236268e-01,-2.27480501e-01,-1.80700183e-01,
            -8.51793289e-01,3.72691810e-01,4.30921875e-02,-2.87388861e-01,-5.14546096e-01,
            1.13538474e-01,-3.39030355e-01,1.35841459e-01,-3.29464227e-01,6.48424476e-02,
            -1.39673144e-01,-2.36561760e-01,-2.00731158e-01,-3.55340302e-01,5.75410485e-01,
            -4.64894533e-01,-3.80759001e-01,-3.38896543e-01,1.26002967e-01,-1.42775372e-01,
            9.80747342e-02,1.70313835e-01,-9.12383869e-02,-6.16824508e-01,2.51156300e-01,
            8.45689476e-02,-3.12994234e-02,-2.10845128e-01,-3.94650340e-01,-1.38815373e-01,
            -1.44908056e-01,-6.94239885e-02,-2.15490237e-01,-5.88172786e-02,-3.01014215e-01,
            2.27242932e-01,-1.14942765e+00,-1.61735296e-01,6.03339188e-02,-5.41739166e-01,
            -2.25627705e-01,-6.94833398e-02,1.51872650e-01,-1.74396515e-01,-3.46168093e-02,
            -7.50355236e-03,-2.57283390e-01,1.18923947e-01,-5.48505364e-03,1.42231822e-01,
            1.78121716e-01,2.64399827e-01,-2.07133695e-01,-1.41375158e-02,9.13407505e-02,
            -6.10961497e-01,-3.18107963e-01,2.08309397e-01,-1.79342423e-02,-4.31382991e-02,
            -8.42371117e-03,-2.56714672e-01,2.98032552e-01,-4.69402403e-01,-3.75479490e-01,
            -4.75643307e-01,3.17911685e-01,7.42703006e-02,2.64414459e-01,8.70536566e-02,
            1.36960045e-01,2.11731538e-01,-1.33431315e-01,-3.77902776e-01,1.89517438e-01,
            -9.62939411e-02,2.36164793e-01,8.06826949e-02,-3.74910235e-01,-5.70722044e-01,
            -1.20825946e-01,-3.21193963e-01,-5.54566085e-02,-3.31755340e-01,4.25416738e-01,
            -1.23718284e-01,9.33792908e-04,-1.63820162e-01,-2.45543286e-01,-2.20157746e-02,
            1.31127775e-01,-5.25303073e-02,-1.28770387e-02,-1.33927271e-01,-1.07822084e+00,
            -2.97601044e-01,-7.21152604e-01,-3.08378905e-01,1.39049992e-01,-1.46176410e+00,
            -2.19603688e-01,-3.51918675e-02,-2.55939197e-02,6.11603335e-02,-6.71371743e-02,
            4.02074121e-02,4.51762736e-01,-1.52653093e-02,-4.00071412e-01,1.28658101e-01,
            -2.68110365e-01,-3.71910483e-01,-1.89850748e-01,-5.42116523e-01,-2.99493968e-01,
            1.62286520e-01,-6.91669703e-01,-3.49872955e-03,1.89311877e-01,-6.31613553e-01,
            1.66832432e-01,2.65726447e-01,-4.75625932e-01,3.32900472e-02,3.13423604e-01,
            1.03762470e-01,1.89244375e-01,-2.48524621e-01,2.04177231e-01,3.10071893e-02,
            1.85120016e-01,1.00113675e-01,-2.55081534e-01,-2.88965046e-01,-5.57649851e-01,
            -3.65459114e-01,-5.20940125e-01,-9.82965231e-01,-6.09318912e-01,-2.85016090e-01,
            3.54258150e-01,-2.03925550e-01,3.31230760e-01,-1.19991100e+00,-4.62666661e-01,
            4.11926210e-01,-4.44342017e-01,4.47442941e-02,-4.23190743e-01,3.75310183e-01,
            -3.69291931e-01,-1.65593848e-02,-1.07349530e-01,-3.54734093e-01,4.35756385e-01,
            1.12155065e-01,-2.82042921e-01,5.10969646e-02,-1.52659431e-01,-1.02912180e-01,
            -7.53250957e-01,-9.01531801e-02,-1.43767267e-01,-1.01407103e-01,-6.16201878e-01,
            -5.57662547e-01,-9.60184559e-02,-3.19629341e-01,-2.53082812e-01,-1.11958265e-01,
            2.53447115e-01,-3.78167480e-01,1.33870393e-01,1.70109142e-02,-1.94317549e-01,
            3.65340769e-01,1.45176932e-01,5.59771359e-02,3.15833166e-02,7.45585859e-02,
            6.36568964e-02,-4.76354547e-02,-3.08936000e-01,3.73090237e-01,-3.37925390e-04,
            -3.13560277e-01,-4.87068705e-02,-1.84442759e-01,8.93104821e-02,2.21293077e-01,
            8.78122672e-02,-1.95271611e-01,-1.49138659e-01,-3.06597382e-01,-3.39808643e-01,
            -6.25303149e-01,-4.42596972e-01,-4.10200506e-02,3.44854355e-01,-3.55027944e-01,
            -2.88913981e-03,-6.67000234e-01,-3.75327379e-01,-1.73701182e-01,-2.01909080e-01,
            -3.62767696e-01,3.41979384e-01,-6.20618500e-02,1.70411780e-01,-2.19452232e-01,
            -6.10502735e-02,-1.62806183e-01,-9.02497113e-01,-1.16841123e-01,3.21369439e-01,
            -1.55288307e-02,-6.12396598e-01,-3.10844511e-01,-5.63834906e-01,3.94792020e-01,
            -5.03791213e-01,-2.51169324e-01,-1.49519131e-01,2.70448029e-02,-2.43048355e-01,
            -1.77106291e-01,-7.73941576e-01,5.14810253e-03,-4.18636620e-01,7.06412017e-01,
            -2.63607740e-01,6.89377859e-02,-2.23455317e-02,-6.04592144e-01,3.29182386e-01,
            -1.89804107e-01,-6.03520349e-02,-1.53875081e-02,-2.75021166e-01,-6.90281093e-01,
            3.91448408e-01,-3.67237628e-01,1.29795596e-01,-7.29875326e-01,1.05127385e-02,
            -1.48293570e-01,-2.24750545e-02,-5.43814242e-01,-6.49147511e-01,-2.61478692e-01,
            -8.03514756e-03,-2.27370799e-01,-2.09870353e-01,-9.68003422e-02,1.17726944e-01,
            -8.83991301e-01,-3.73160124e-01,6.30274490e-02,-1.52687859e-02,3.83222401e-01,
            -3.04501057e-01,2.03763127e-01,1.57944933e-02,8.81560892e-02,2.18752265e-01,
            1.66033745e-01,2.32739270e-01,-9.31180362e-03,3.49893987e-01,-1.07916750e-01,
            -8.26564431e-01,-5.47784746e-01,-7.53180742e-01,-3.61203790e-01,-3.01990986e-01,
            -3.22730511e-01,-4.95788336e-01,-5.97512186e-01,-5.31600118e-01,-7.19951570e-01,
            -5.74947037e-02,-3.57503146e-02,2.47999087e-01,-1.12041458e-01,-3.25286090e-01,
            -4.05921787e-01,-2.32280120e-01,-4.96003926e-01,-3.21670860e-01,4.38240051e-01,
            -2.11025149e-01,-3.87399495e-01,2.67310351e-01,-3.59115541e-01,-2.53497213e-01,
            -8.90996829e-02,-1.13191521e+00,1.20745294e-01,-2.94561803e-01,-3.48393738e-01,
            -2.02916250e-01,1.91788793e-01,2.03062162e-01,9.40430537e-02,-2.97549307e-01,
            -1.09862077e+00,-1.30127678e-02,-4.59483534e-01,-7.80164311e-03,-2.44450152e-01,
            -3.39264512e-01,-3.66484135e-01,-3.80339891e-01,-4.07006621e-01,-3.68148148e-01,
            -2.62433738e-01,-4.99385595e-01,-5.60728252e-01,1.55932069e-01,-2.80304819e-01,
            1.87971070e-01,-3.54207218e-01,7.12637484e-01,2.05309480e-01,-9.67779696e-01,
            9.82384607e-02,-3.10251474e-01,3.89196128e-02,-3.46831650e-01,1.15491897e-02,
            2.68224925e-01,-4.42867950e-02,2.84692764e-01,9.03028175e-02,-6.61439598e-01,
            -8.67489576e-01,1.02998197e-01,-1.82101920e-01,3.43777426e-02,-5.72112024e-01,
            4.52737361e-02,1.39787123e-01,2.17505008e-01,-9.62199457e-03,3.75072926e-01,
            -3.28351498e-01,2.68896908e-01,-3.89057666e-01,5.05680628e-02,4.23336849e-02,
            -6.38844132e-01,-6.99285090e-01,-2.10036248e-01,-2.48870417e-01,-1.39825538e-01,
            8.52829069e-02,-7.35132694e-02,2.09777147e-01,9.69299600e-02,-7.81957060e-02,
            -7.03467548e-01,-9.05710980e-02,4.91135001e-01,2.85279512e-01,-2.32496083e-01,
            -4.16859925e-01,-2.91543573e-01,-4.36441571e-01,-1.74029976e-01,-2.74922520e-01,
            -3.98789644e-01,3.58795404e-01,-3.68076354e-01,-4.61499184e-01,7.93571472e-02,
        };
    k2c_tensor dense_2_kernel = {&dense_2_kernel_array[0],2,400,{20,20, 1, 1, 1}};
    float dense_2_bias_array[20] = {
        -3.76606971e-01,8.21272135e-01,-1.13641229e-02,-4.02778052e-02,1.72365621e-01,
            2.34434843e-01,-3.33110303e-01,1.32676482e-01,-9.34850574e-02,1.86771303e-01,
            -4.50249821e-01,-9.79382247e-02,-2.55193532e-01,-3.50375742e-01,-2.50450492e-01,
            -1.22119032e-01,-3.42412680e-01,-4.46126938e-01,-3.26160371e-01,-1.48543060e-01,
        };
    k2c_tensor dense_2_bias = {&dense_2_bias_array[0],1,20,{20, 1, 1, 1, 1}};
    float dense_2_fwork[560] = {0};


    float lstm_1_output_array[20] = {0};
    k2c_tensor lstm_1_output = {&lstm_1_output_array[0],1,20,{20, 1, 1, 1, 1}};
    float lstm_1_fwork[160] = {0};
    int lstm_1_go_backwards = 0;
    int lstm_1_return_sequences = 0;
    float lstm_1_state[40] = {0};
    float lstm_1_kernel_array[1600] = {
        2.69306183e-01,-2.37888858e-01,9.54294145e-01,-1.68398038e-01,-2.62908578e-01,
        -6.39828384e-01,2.12527841e-01,5.25351502e-02,-1.86465755e-01,1.22758463e-01,
        -5.82875609e-01,2.63765782e-01,5.74659556e-02,2.99350381e-01,-1.03709668e-01,
        8.35366547e-02,-1.63747907e-01,-1.67115167e-01,-3.73873919e-01,5.54334462e-01,
        1.29169486e-02,-3.33028853e-01,-6.63342834e-01,-1.73147470e-01,2.95507729e-01,
        -1.11612451e+00,2.00466335e-01,-4.17420715e-01,-4.68609095e-01,-6.06989682e-01,
        -7.40908682e-01,-5.08128345e-01,-8.29738617e-01,-1.00100827e+00,-3.24791610e-01,
        2.46557832e-01,-9.01994482e-02,-7.18425035e-01,6.37903214e-01,-3.53529155e-01,
        -1.12135008e-01,-2.19988793e-01,1.31636083e-01,-7.65968263e-02,3.25712897e-02,
        -1.86514035e-01,2.72603214e-01,-1.17118008e-01,3.06839079e-01,-7.63125420e-02,
        -7.76253454e-03,-1.62514467e-02,3.62009853e-01,1.41579702e-01,-2.48640224e-01,
        -2.39861444e-01,-2.32118711e-01,8.36657211e-02,-8.89595225e-02,9.67178762e-01,
        -1.69156328e-01,-6.42293751e-01,5.71805596e-01,-3.43301862e-01,-1.60663888e-01,
        -6.16192400e-01,4.26635742e-01,6.38284013e-02,5.10841496e-02,-3.55804771e-01,
        -1.36597350e-01,2.25076705e-01,-2.74805635e-01,1.53246805e-01,-5.78813791e-01,
        9.41036493e-02,-1.51260763e-01,-5.34504615e-02,-5.55543602e-01,3.47388014e-02,
        1.80515230e-01,-3.57915938e-01,-1.36154518e-01,-1.16411708e-01,4.13850665e-01,
        -6.39236510e-01,-2.47786149e-01,9.12016705e-02,2.19752993e-02,-4.21883374e-01,
        6.61464334e-01,-2.84269333e-01,-3.91598582e-01,-2.43185475e-01,6.93142936e-02,
        -2.17533618e-01,-4.20140624e-02,-1.13307536e-01,7.74376169e-02,-3.67079794e-01,
        -5.49073040e-01,-1.55510217e-01,-1.44387586e-02,-5.18620908e-01,-2.92447507e-01,
        5.06397724e-01,-5.12404025e-01,2.50739069e-03,-7.99986273e-02,-2.74254173e-01,
        -9.69253302e-01,3.77720833e-01,-4.51739192e-01,7.46589124e-01,8.42105091e-01,
        -2.66775519e-01,6.50291741e-01,-4.62365061e-01,2.38600045e-01,4.28158998e-01,
        1.45018846e-01,-1.40328109e-01,-7.68168345e-02,5.22069260e-02,8.68237540e-02,
        -1.56528845e-01,4.89252180e-01,-2.44330570e-01,-7.86805153e-02,1.42483056e-01,
        -1.76337802e+00,6.71052575e-01,-1.57630593e-01,-6.53734058e-02,-1.69816166e-01,
        -4.78493199e-02,3.89784649e-02,-1.41656518e-01,-9.72089022e-02,-6.34038746e-02,
        -3.47171783e-01,-1.51236683e-01,7.65332341e-01,2.16294050e-01,-9.74701345e-01,
        -4.82312649e-01,-2.11829334e-01,-3.30489039e-01,-4.06136096e-01,-5.85515916e-01,
        -9.65820611e-01,-1.99318424e-01,-3.30497295e-01,8.97962898e-02,-2.16251239e-01,
        -2.22266942e-01,-7.72261694e-02,-3.63227814e-01,-3.52920562e-01,-4.88513440e-01,
        1.03963263e-01,2.07619295e-01,-2.37143591e-01,-2.61873633e-01,2.05515012e-01,
        -3.14404726e-01,6.24416232e-01,2.15874374e-01,7.13649690e-01,1.56469479e-01,
        -3.29778194e-01,-3.83062549e-02,-5.28807521e-01,-7.44272768e-02,-2.31297895e-01,
        -2.17186660e-01,-3.50588322e-01,2.58710012e-02,6.34864047e-02,2.00594530e-01,
        -5.93709052e-01,4.81752418e-02,-4.32672292e-01,-6.56874776e-01,-4.95124515e-03,
        -4.45696980e-01,-3.89469236e-01,3.31544012e-01,-2.53916264e-01,-3.02265018e-01,
        -5.49600244e-01,4.39796895e-01,2.42387950e-01,-2.67105132e-01,-3.39809477e-01,
        9.71421525e-02,-2.99247131e-02,5.74472696e-02,-9.29662764e-01,-1.36113679e-02,
        9.72407386e-02,-4.05274369e-02,3.04984331e-01,-7.22929761e-02,-2.10491195e-01,
        -4.78653749e-03,6.46213740e-02,1.32802472e-01,-1.02519155e-01,2.22902410e-02,
        -4.66554798e-02,1.40962899e-01,-2.89644569e-01,6.77840710e-01,-2.35370070e-01,
        -4.11144756e-02,3.73374149e-02,-4.12393004e-01,8.42799991e-02,-1.63432166e-01,
        8.31877217e-02,-3.30389619e-01,2.20693536e-02,5.21600731e-02,5.29489994e-01,
        -5.86528003e-01,1.01761438e-01,4.63754497e-02,1.34713098e-01,-9.73011926e-02,
        -1.42966831e+00,-9.34112146e-02,1.63494647e-01,2.31235638e-01,2.69949734e-01,
        -4.63141918e-01,-3.55974189e-03,4.43145901e-01,-4.40229416e-01,1.95072237e-02,
        -2.68796325e-01,-9.97524485e-02,-1.08133286e-01,-4.94927049e-01,1.51130199e-01,
        -2.07396254e-01,4.01220500e-01,-6.06143713e-01,3.63634855e-01,-1.85757533e-01,
        -1.90989256e-01,1.14422105e-01,-3.81331146e-01,-3.38953793e-01,-1.96028560e-01,
        -1.45154938e-01,-3.62179875e-01,-5.02955079e-01,-2.11389914e-01,-7.79995173e-02,
        8.60645398e-02,-3.40485901e-01,-5.19071460e-01,9.42103341e-02,4.17674065e-01,
        -2.47062400e-01,1.81183661e-03,-4.06947315e-01,1.48582593e-01,-1.27891779e-01,
        -8.02579597e-02,-2.33357221e-01,-8.98769200e-02,9.56094712e-02,-1.78392008e-01,
        1.71448186e-01,2.82263644e-02,6.14315391e-01,-2.92436719e-01,3.56623620e-01,
        -7.65738264e-02,7.37686694e-01,2.96609819e-01,1.49487883e-01,3.24942678e-01,
        -7.11604059e-02,-9.34571251e-02,-3.28391850e-01,-1.34608254e-01,-6.52305335e-02,
        -6.31381094e-01,2.76028126e-01,-1.12358794e-01,-2.44547039e-01,1.01470612e-01,
        -1.48027405e-01,-8.93693790e-02,2.18702182e-01,-1.88376412e-01,1.39565915e-01,
        -2.49961227e-01,2.15655401e-01,-1.70601934e-01,-2.07365826e-02,-1.40456915e-01,
        7.39503741e-01,-4.63034004e-01,-6.02052748e-01,4.04247403e-01,-4.40345943e-01,
        3.84322889e-02,4.13236506e-02,-2.57909358e-01,-5.88266179e-02,6.18841827e-01,
        -3.07126015e-01,4.13776875e-01,-5.75134218e-01,-4.39718105e-02,3.97101074e-01,
        4.47231941e-02,-2.92366713e-01,2.74401784e-01,1.85030922e-01,1.55098975e-01,
        -6.49480522e-01,-1.13172114e-01,4.52124625e-02,1.63706634e-02,-5.88141233e-02,
        9.67303813e-02,-1.92116469e-01,-2.27952570e-01,-4.20909822e-01,1.51481971e-01,
        8.33189487e-02,-2.05834955e-01,-8.81410614e-02,1.51197404e-01,-1.04586788e-01,
        -5.35517097e-01,-2.86402494e-01,-6.82582200e-01,-2.42429763e-01,5.21217883e-02,
        7.61063471e-02,-3.17576200e-01,-3.03654224e-01,-3.74303669e-01,2.79534869e-02,
        -1.91032976e-01,-3.94844472e-01,1.06408328e-01,-9.42735791e-01,-3.91907364e-01,
        -1.03862055e-01,4.81986523e-01,2.25494996e-01,-2.22262040e-01,-1.52915522e-01,
        -5.00972345e-02,-2.11562112e-01,-9.91613790e-02,-8.25742781e-02,2.02616736e-01,
        -2.81653076e-01,7.33927637e-02,1.34213507e-01,-1.15409732e-01,1.07630707e-01,
        4.09089550e-02,-1.39178615e-02,-3.80623609e-01,-1.16846286e-01,4.82091345e-02,
        -5.47814190e-01,-1.80084944e-01,-5.28797358e-02,-2.49520183e-01,-3.40784192e-01,
        6.34667099e-01,1.44114017e-01,-1.37740090e-01,3.34396064e-01,1.07198544e-01,
        -4.17957276e-01,-2.88591921e-01,5.04759792e-03,5.75932384e-01,-1.97355032e-01,
        -6.37638807e-01,1.61137655e-01,-2.67140776e-01,2.50878725e-02,2.05502108e-01,
        -2.80415922e-01,-9.55536291e-02,8.29129368e-02,-1.13381296e-01,-3.07111740e-01,
        8.59790802e-01,-7.18963146e-01,-6.77989364e-01,-7.10472703e-01,-1.58808804e+00,
        -8.98008227e-01,6.81591988e-01,-5.49020022e-02,2.70884454e-01,-5.29855825e-02,
        3.02332230e-02,2.77423672e-02,-5.66485524e-02,1.28572375e-01,9.04632360e-02,
        -1.68224648e-01,7.83521175e-01,3.70213419e-01,-6.38297141e-01,-1.93815395e-01,
        -4.83373076e-01,-5.30176125e-02,7.79278874e-01,-1.02127278e+00,-4.13649529e-01,
        -5.77507675e-01,-7.27425277e-01,-6.40424728e-01,-4.15079355e-01,-3.84188503e-01,
        -1.48415983e+00,-5.60654223e-01,-3.69913280e-02,4.83805407e-03,-5.59287667e-01,
        7.16661870e-01,9.17795151e-02,-5.09453833e-01,6.73987985e-01,-1.41342089e-01,
        -2.14892235e-02,-4.90259156e-02,1.18527636e-01,-1.40179647e-03,-5.76711893e-01,
        -1.92502826e-01,-1.79076523e-01,1.71014905e-01,1.38594091e-01,-1.75149903e-01,
        -7.36114308e-02,-2.04675302e-01,-8.94847929e-01,-7.30239786e-03,1.47683844e-01,
        -3.98969978e-01,5.49976707e-01,-5.19648306e-02,-1.67428657e-01,4.95729715e-01,
        1.24176264e+00,7.17294216e-01,-2.97555983e-01,1.09476352e+00,-8.00058991e-02,
        -3.98649633e-01,9.44548309e-01,1.21557012e-01,1.10391647e-01,2.37257630e-02,
        8.72519910e-02,1.55646861e-01,-1.90164715e-01,4.58006971e-02,-1.67850673e-01,
        -2.26883680e-01,5.13510127e-03,3.35478485e-01,-4.95200098e-01,-7.84375966e-02,
        -1.01976347e+00,6.30169451e-01,1.76288888e-01,1.86375782e-01,-6.80722952e-01,
        2.14968473e-01,-1.80762202e-01,4.73295689e-01,-1.95036262e-01,-5.30226827e-01,
        -1.99556231e-01,4.10989106e-01,-6.02579489e-02,1.12014425e+00,-6.56233191e-01,
        -1.58660859e-01,-3.00463643e-02,1.23373818e+00,2.96117961e-01,7.70745099e-01,
        -4.49764132e-01,6.15150809e-01,-2.37837490e-02,9.43442702e-01,-4.53708768e-01,
        -2.85040230e-01,-5.79214811e-01,3.85329336e-01,-5.73480070e-01,-1.75393447e-01,
        -9.00543258e-02,-5.08732319e-01,3.86191636e-01,2.28670061e-01,-3.43344480e-01,
        -1.24298602e-01,-2.18498126e-01,1.11155152e+00,-7.00016618e-01,1.49066180e-01,
        1.49002120e-01,-4.90874499e-02,-1.30059138e-01,-2.94804841e-01,-1.37952316e+00,
        -2.11295798e-01,5.31373203e-01,-1.10948399e-01,-9.62297693e-02,1.37884066e-01,
        -2.89228052e-01,2.23018408e-01,-4.64211404e-02,4.32258278e-01,-4.45931435e-01,
        -8.21095929e-02,2.59298623e-01,1.11285484e+00,-1.98440388e-01,-3.12721044e-01,
        5.00020444e-01,-1.89548597e-01,-7.64704168e-01,1.09954977e+00,-2.48543978e+00,
        3.48873824e-01,4.37185705e-01,7.00533152e-01,1.94574147e-01,-2.21042514e-01,
        1.08933724e-01,-1.08905196e+00,-1.77012593e-01,9.00057793e-01,-7.91304111e-01,
        2.55972296e-01,3.45170677e-01,2.11263609e+00,-6.07679367e-01,-4.43884581e-01,
        5.75499713e-01,-1.86948255e-01,-7.77038097e-01,1.82580456e-01,-1.38661659e+00,
        5.67797899e-01,5.53412616e-01,-1.94609568e-01,7.31067598e-01,-3.60935479e-01,
        5.04753590e-01,-9.03070495e-02,-9.60090160e-01,2.74136603e-01,-3.99990618e-01,
        -1.59506962e-01,1.34830225e+00,8.17695439e-01,-2.97017515e-01,2.86247283e-01,
        1.40775502e-01,8.35514069e-02,-1.83542669e-01,3.90973181e-01,4.92252618e-01,
        -6.49948061e-01,3.21160048e-01,-4.27514732e-01,5.04176557e-01,-3.43651325e-01,
        -9.82859284e-02,-1.68144301e-01,-1.11224316e-01,-5.73182106e-01,-4.44309898e-02,
        -4.53247696e-01,-7.86625624e-01,1.13589144e+00,-4.89021003e-01,9.07247439e-02,
        2.24939361e-01,1.63726404e-01,-1.83674127e-01,4.18916702e-01,-3.61046970e-01,
        -1.45212486e-01,4.63971496e-02,1.69891696e-02,-6.97643831e-02,-2.50430644e-01,
        1.05203195e-02,-2.42717892e-01,-4.20879871e-01,8.43870547e-03,-2.74576575e-01,
        -5.21728881e-02,-2.24932343e-01,2.96439439e-01,3.48994024e-02,-2.03314170e-01,
        3.88184488e-01,6.56102180e-01,-3.83290201e-02,8.11745286e-01,5.35124660e-01,
        -2.40101665e-01,4.50490683e-01,1.81049481e-01,6.58742189e-01,8.12311396e-02,
        -4.62354012e-02,-8.30703452e-02,9.65837613e-02,-6.87201500e-01,1.06101681e-03,
        -6.35670602e-01,-9.23103318e-02,8.75183940e-02,9.29328986e-03,1.52034163e-01,
        -2.90144265e-01,1.13531007e-02,-1.77083582e-01,-4.17931944e-01,-3.73029858e-01,
        -4.00060743e-01,7.56315589e-02,7.68207759e-02,3.03031981e-01,-2.44302809e-01,
        1.07744031e-01,4.61721867e-02,-2.87497677e-02,1.23504803e-01,-6.00539863e-01,
        -1.68196514e-01,-6.82482645e-02,1.94061935e-01,8.00249577e-02,-1.10715777e-01,
        -6.86333925e-02,-9.96081978e-02,-4.83437896e-01,-3.42344940e-01,-3.55041362e-02,
        -2.48380959e-01,2.96807885e-01,-3.20083499e-01,2.66627461e-01,-2.00181201e-01,
        1.28564104e-01,1.27577752e-01,-5.14507473e-01,1.49950296e-01,2.29576215e-01,
        1.46713093e-01,1.04451872e-01,2.83860713e-01,-3.88477325e-01,3.45988870e-01,
        7.15810657e-02,-3.48874760e+00,-7.79258132e-01,2.90371686e-01,-1.57169223e+00,
        -1.37925696e+00,3.88543725e-01,1.79170854e-02,5.21992385e-01,-3.79848421e-01,
        6.06844842e-01,-1.54960632e-01,5.94111323e-01,5.73798716e-01,-5.99465013e-01,
        -8.42537344e-01,5.63719422e-02,4.75132644e-01,1.48358285e-01,-5.13979375e-01,
        5.06144226e-01,3.25958133e-01,-5.17937601e-01,-3.88693511e-01,-2.48627737e-01,
        5.06117761e-01,3.15250814e-01,2.45725900e-01,2.02833876e-01,-2.54447997e-01,
        -2.43449122e-01,6.33530080e-01,-4.75012749e-01,3.52726549e-01,-3.20680171e-01,
        -1.44874901e-01,4.15240340e-02,2.62751430e-01,-6.76516891e-01,4.31702495e-01,
        -2.57657468e-01,-5.08943796e-01,-3.47086340e-01,-3.90705854e-01,-3.57420176e-01,
        -6.36394098e-02,1.44590616e-01,5.14107421e-02,5.25507107e-02,-2.80864477e-01,
        -4.55422420e-03,2.47438520e-01,-2.08223268e-01,4.11652863e-01,3.40620190e-01,
        -8.70264843e-02,8.90133437e-03,-5.18796921e-01,-8.63276124e-02,6.20308854e-02,
        -8.51253495e-02,-2.12939739e+00,-1.94888604e+00,2.20920499e-02,-1.20783722e+00,
        -1.30555809e+00,-2.97008812e-01,-2.08986267e-01,2.35266253e-01,1.19076051e-01,
        6.58209696e-02,-4.77660567e-01,6.34018481e-01,-5.30238748e-01,4.62977767e-01,
        -5.08748412e-01,-2.93983102e-01,-6.69806497e-03,-2.10732579e-01,-3.44059616e-01,
        -1.92793012e-01,6.26437366e-02,-1.56046763e-01,-2.30570853e-01,-1.54532462e-01,
        -1.24066070e-01,1.48076087e-01,1.30131707e-01,1.74204618e-01,8.55094790e-02,
        -1.82563722e-01,7.39640743e-02,-1.42988889e-03,2.32746765e-01,-2.35753015e-01,
        -5.56519926e-01,-3.47620286e-02,-8.42141733e-02,-4.12120856e-02,-1.09464703e-02,
        -2.06312120e-01,6.58537745e-01,-6.43944383e-01,1.14498883e-01,-1.03776181e+00,
        -8.45764697e-01,3.44706506e-01,3.98580968e-01,3.71573120e-01,-2.49939144e-01,
        -4.22499806e-01,8.88400748e-02,1.46633416e-01,1.05865133e+00,-6.55011892e-01,
        7.07226932e-01,5.05514264e-01,9.19358790e-01,-1.02838367e-01,5.06392717e-01,
        5.80793202e-01,7.86529779e-02,1.48552954e-01,-7.65355527e-01,-4.57142472e-01,
        -7.23681986e-01,6.66064471e-02,1.39654100e-01,-1.73394561e-01,1.77618414e-01,
        -7.74128914e-01,9.20879468e-02,4.13770437e-01,4.46357206e-03,-1.32824844e-02,
        -2.10774913e-01,-3.28497551e-02,-3.68130989e-02,-5.00182360e-02,3.03723007e-01,
        -1.73895303e-02,-1.89613849e-02,-2.74322510e-01,5.79739153e-01,1.70223519e-01,
        4.07951146e-01,-3.15313071e-01,8.26009437e-02,-6.31033838e-01,-3.10067475e-01,
        -7.37524211e-01,-3.98221314e-02,-7.79076278e-01,5.03923655e-01,1.14490561e-01,
        4.56118852e-01,-5.29616140e-02,-3.01094174e-01,3.88659179e-01,-5.88926852e-01,
        -1.43278912e-01,-2.85212249e-01,1.81947008e-01,1.84345335e-01,-1.72010041e-03,
        3.00844789e-01,1.59403402e-02,1.63363427e-01,-7.20356703e-02,-3.95153970e-01,
        1.51837155e-01,1.13390349e-01,-3.62001628e-01,6.98277634e-03,-4.63321153e-03,
        5.83587289e-02,4.97068763e-01,-2.99143702e-01,3.87035340e-01,-8.12648311e-02,
        -1.31472200e-01,-1.25907338e+00,4.40171897e-01,-2.12941363e-01,2.86970377e-01,
        3.20944250e-01,3.22925061e-01,-4.21046257e-01,-5.99366240e-03,-1.42149031e-01,
        -3.61329406e-01,-3.30646008e-01,6.62125111e-01,3.13903630e-01,-4.16361868e-01,
        -2.45948613e-01,6.25644019e-03,-2.74872065e-01,-8.30028430e-02,1.16741382e-01,
        3.92874271e-01,-2.34804183e-01,4.36891504e-02,1.16986796e-01,6.65774643e-01,
        2.77724206e-01,1.42601937e-01,-2.34564364e-01,-2.79292643e-01,-7.63463557e-01,
        -8.07773769e-01,-1.14472821e-01,8.46689045e-02,-3.36306572e-01,6.81111395e-01,
        2.70283788e-01,-1.08501136e-01,2.13657036e-01,-2.10548937e-02,-7.31586218e-02,
        -8.29404235e-01,-3.20510380e-02,7.01878890e-02,1.99913278e-01,3.47163416e-02,
        9.06923935e-02,-9.89202201e-01,-5.16965576e-02,-2.56838679e-01,-3.31353217e-01,
        -2.99045026e-01,1.79656997e-01,3.30831170e-01,1.37118101e-01,3.36125761e-01,
        -6.89495385e-01,-2.17491731e-01,1.90673545e-02,3.08941193e-02,-9.97836329e-03,
        3.12022299e-01,-7.63683692e-02,2.44657710e-01,1.64353475e-01,-6.76914826e-02,
        -3.32180887e-01,3.05605948e-01,1.57074109e-01,-9.09318104e-02,-1.57556322e-03,
        -7.26750374e-01,-5.72477989e-02,1.27398998e-01,3.07235330e-01,-2.90139586e-01,
        2.19940141e-01,-1.19382367e-02,-1.70209166e-02,-4.93298918e-02,3.11475873e-01,
        -1.90257162e-01,-1.77211478e-01,5.04023194e-01,-9.22465384e-01,-1.85280025e-01,
        -1.20806193e+00,5.69838434e-02,-5.97240269e-01,2.44291238e-02,-2.10678831e-01,
        -8.59314144e-01,-3.42616767e-01,9.21881616e-01,2.50626802e-01,-2.45636944e-02,
        -4.09234375e-01,1.60736471e-01,-1.70712486e-01,-1.11628145e-01,3.09831128e-02,
        6.94067121e-01,3.13251466e-01,-3.35432500e-01,-3.92404199e-01,5.28561249e-02,
        -8.24016258e-02,3.76500905e-01,1.97340876e-01,4.53687757e-01,-3.04408461e-01,
        1.74637839e-01,-5.99195212e-02,2.71871071e-02,1.34368613e-01,-3.19981515e-01,
        -3.33081707e-02,-1.05018489e-01,1.43705234e-01,4.72251445e-01,-1.06764384e-01,
        -3.34364697e-02,-5.67920320e-02,-1.49933353e-01,2.69432336e-01,1.72256067e-01,
        -4.88636158e-02,-3.93605351e-01,-1.74326986e-01,-5.77439606e-01,-3.81724268e-01,
        -4.33656514e-01,1.18938126e-01,-6.33848846e-01,-9.94483009e-02,-9.66882169e-01,
        -2.31672287e-01,-2.22527608e-01,-3.19657288e-02,-7.67666698e-01,6.75983280e-02,
        -2.37922490e-01,-5.59482038e-01,-4.30195220e-03,-3.36726397e-01,8.62943679e-02,
        -4.21857744e-01,-5.58634877e-01,-5.53142764e-02,-2.71991432e-01,-2.21764520e-02,
        1.05255403e-01,-3.58482525e-02,1.53880596e-01,8.41637421e-03,-2.35291541e-01,
        -7.52194598e-02,1.21094048e-01,4.42693681e-02,1.37490660e-01,2.27369577e-01,
        9.92717128e-03,-5.56224763e-01,-3.89719531e-02,2.73399025e-01,2.00468034e-01,
        3.31840217e-01,2.26664662e-01,7.88274556e-02,1.99763551e-01,-3.88446063e-01,
        -1.02420235e+00,2.70014495e-01,-1.35509539e+00,-3.40890884e-02,-1.19432777e-01,
        -4.61875409e-01,-2.95808539e-02,-1.09470442e-01,-3.54478866e-01,-1.69379413e-01,
        -1.49633154e-01,-2.04471156e-01,-1.66403994e-01,1.88877910e-01,-2.52520680e-01,
        -7.96850324e-02,1.09807052e-01,-1.37507260e-01,1.30798236e-01,-6.17097504e-02,
        6.47242218e-02,2.43846383e-02,6.97598904e-02,-4.79866773e-01,-2.68629342e-01,
        -5.36229648e-02,-3.23818587e-02,-1.27508938e-01,1.85653493e-01,-2.29586940e-02,
        2.25831628e-01,-8.63843486e-02,-6.28900677e-02,-1.26616150e-01,1.42610699e-01,
        -1.06804594e-01,1.23118006e-01,-3.57132107e-02,-2.46333890e-04,-2.91497201e-01,
        -1.23096734e-01,-4.49494064e-01,1.71782836e-01,1.86309069e-01,-5.27303629e-02,
        -4.83784266e-02,-4.63592559e-02,7.95063972e-02,-1.46413490e-01,1.50398880e-01,
        -4.25031751e-01,4.08972651e-01,-7.65196145e-01,-4.95375931e-01,4.13237214e-02,
        -6.52651906e-01,5.85782565e-02,-9.07091856e-01,-9.68089104e-02,-1.20769821e-01,
        -3.89292300e-01,-4.71221209e-01,-1.85335621e-01,-2.17690645e-03,-3.09274167e-01,
        -1.85378313e-01,-4.23671193e-02,3.44123334e-01,-1.29666731e-01,2.52136141e-01,
        5.94454482e-02,2.58581311e-01,-4.24246967e-01,1.71908930e-01,2.13587984e-01,
        -3.39129537e-01,-2.40027636e-01,-3.91316324e-01,6.21008426e-02,-1.65691033e-01,
        1.03974082e-01,-7.22042203e-01,-4.11573946e-01,-3.95568371e-01,-7.54491016e-02,
        1.15380168e-01,2.13536814e-01,-2.93948203e-01,7.22012967e-02,-6.24582410e-01,
        2.82379389e-01,-1.40692413e-01,2.50179619e-02,-1.81158796e-01,2.97418907e-02,
        -7.92951703e-01,1.43174946e-01,-2.00305030e-01,1.66834563e-01,-2.87943900e-01,
        -1.91237494e-01,-2.16862887e-01,4.56269719e-02,-6.68170899e-02,2.29425400e-01,
        -1.85902238e-01,3.33926320e-01,3.09514999e-01,1.88637115e-02,-9.72623006e-02,
        -5.88072687e-02,1.39065936e-01,-6.46532357e-01,8.27125367e-03,3.21692228e-01,
        1.12555549e-01,-5.89544535e-01,-3.23427379e-01,3.44778746e-02,-2.08905116e-02,
        -2.27892920e-01,-8.58961284e-01,-1.04679637e-01,-7.46957064e-01,3.94639134e-01,
        -2.81246006e-01,4.23690736e-01,-2.71198656e-02,1.87583342e-02,-2.17486754e-01,
        -2.45879039e-01,7.79099092e-02,-1.74704075e-01,-3.66390832e-02,2.69582570e-01,
        -1.26377910e-01,1.34416670e-01,7.32697994e-02,-1.74436510e-01,1.54179102e-02,
        4.87471633e-02,-3.22500728e-02,2.09849253e-01,-2.81985909e-01,-7.20727593e-02,
        -3.15137804e-01,-2.18754746e-02,1.05073050e-01,-1.87863633e-01,-8.61358717e-02,
        -1.98035896e-01,5.48531078e-02,-1.97032973e-01,-3.74181241e-01,2.80566840e-03,
        -3.56730133e-01,2.78344274e-01,7.43777603e-02,7.42076524e-03,-4.42596763e-01,
        -5.05932570e-01,9.75604728e-02,1.21960215e-01,2.87815690e-01,-5.43645322e-01,
        2.31268927e-01,-1.69902787e-01,1.71268716e-01,-1.83407947e-01,3.27012599e-01,
        4.15380031e-01,6.45688549e-02,1.53961610e-02,-6.82163760e-02,-2.85169661e-01,
        4.20358106e-02,-2.86308259e-01,1.56124726e-01,-1.31745771e-01,1.38406694e-01,
        -5.33797383e-01,2.07878575e-01,3.55078429e-01,-3.85467410e-01,1.61478058e-01,
        -3.28988075e-01,3.27980727e-01,1.64451313e+00,-4.44292650e-02,1.25422835e-01,
        -6.74098313e-01,3.13761503e-01,1.78594455e-01,-5.06490350e-01,-8.46856311e-02,
        -9.04070377e-01,-5.04945397e-01,-4.96600300e-01,-6.27358496e-01,-2.69975960e-01,
        -1.18031859e+00,1.13871916e-04,2.20651180e-01,-5.45912683e-02,-1.18450344e+00,
        1.78946123e-01,-9.29027736e-01,-5.52488804e-01,1.05674803e+00,-5.21281481e-01,
        3.20711672e-01,-8.85080546e-02,-3.08575481e-01,-2.35413164e-01,-4.15069312e-01,
        -3.00162017e-01,-9.83837321e-02,-2.61820070e-02,-2.79867560e-01,-1.01872548e-01,
        2.57107794e-01,-1.42735079e-01,-4.62688893e-01,3.65142189e-02,-2.33481694e-02,
        -5.63212812e-01,8.01507384e-02,-2.48427957e-01,-1.91000819e-01,-3.70722085e-01,
        6.48649395e-01,4.38537039e-02,1.12244666e+00,5.99767625e-01,1.05049498e-02,
        4.43745643e-01,1.26532158e-02,-3.69735658e-02,3.49078894e-01,7.55268782e-02,
        -1.87957138e-01,6.20296225e-03,-2.85591453e-01,-6.74002990e-02,-9.15641785e-01,
        -1.39602631e-01,6.81087151e-02,-6.36187419e-02,1.70980960e-01,-5.16557693e-01,
        2.52186179e-01,-5.82504272e-01,4.48716357e-02,3.95768493e-01,3.39629322e-01,
        -8.61629009e-01,-5.78031540e-01,-5.99092066e-01,-6.08172178e-01,-2.77364463e-01,
        -3.26162577e-02,4.00531530e-01,2.87896752e-01,1.22921610e+00,1.07095206e+00,
        -1.61658138e-01,2.80107737e-01,2.13424101e-01,3.95369172e-01,1.76156890e-02,
        -4.18955743e-01,1.29942048e+00,1.01313591e+00,1.03765500e+00,-1.56913295e-01,
        -4.74688590e-01,1.33005381e-01,2.72980109e-02,-7.53278673e-01,-6.70775324e-02,
        -1.22074053e-01,7.14831799e-02,-1.65869296e-01,-1.91959534e-02,1.77609466e-03,
        -7.49282017e-02,4.42030400e-01,-6.46684095e-02,-4.62800086e-01,-1.84459269e-01,
        -5.40553212e-01,7.65886962e-01,9.85529125e-01,-1.99037557e-03,-2.20364586e-01,
        -9.07300636e-02,-6.53979421e-01,-1.86066031e-01,-2.69849271e-01,3.89831350e-03,
        -8.21290195e-01,3.80811185e-01,9.88442525e-02,-1.98418245e-01,9.33801308e-02,
        4.14125413e-01,7.35315830e-02,-8.38781670e-02,1.19824894e-01,2.30483741e-01,
        2.48330962e-02,5.02571642e-01,1.03135645e+00,1.99642956e-01,-1.16994870e+00,
        1.07095696e-01,-3.31548333e-01,-1.34728566e-01,-2.27264091e-01,-2.79307514e-01,
        -1.89780757e-01,-2.33672395e-01,-2.24909052e-01,1.10975817e-01,4.10762280e-02,
        4.70467150e-01,1.07939698e-01,9.10925090e-01,-1.18459545e-01,2.01258898e-01,
        8.99891794e-01,7.59336352e-02,-2.56843626e-01,2.23511681e-01,7.40358889e-01,
        2.01861531e-01,-3.30128610e-01,-2.59522825e-01,-3.88653904e-01,3.36050928e-01,
        -2.58499607e-02,2.65902013e-01,1.09311365e-01,7.00202644e-01,6.99115574e-01,
        -3.36371720e-01,3.59147340e-01,4.56651658e-01,-3.07595674e-02,-1.80843353e-01,
        2.30349362e-01,3.53908271e-01,4.81954843e-01,3.58671725e-01,3.90988797e-01,
        4.91316319e-02,4.27748382e-01,-2.97097325e-01,-2.01197028e-01,-1.53817713e-01,
        -1.44108310e-02,-7.50771686e-02,-6.92031980e-01,-7.70427346e-01,-4.71335828e-01,
        -3.06708843e-01,1.26940450e-02,-1.76311973e-02,-8.96425724e-01,-4.99613583e-01,
        2.30969861e-01,2.24247158e-01,4.62391078e-01,2.66479522e-01,1.84352353e-01,
        -4.96054590e-02,-9.80468690e-02,7.86616728e-02,7.64482543e-02,-1.98025405e-01,
        1.10642657e-01,2.50804573e-01,-3.00418586e-01,3.36196214e-01,-5.21517873e-01,
        9.09397230e-02,3.83318037e-01,-8.64783004e-02,3.90786737e-01,-5.65234661e-01,
        3.11625957e-01,5.31038940e-01,9.66983318e-01,8.06181848e-01,5.54842114e-01,
        -2.47121640e-02,-3.23970406e-03,-9.84117240e-02,5.73804695e-03,-2.14995608e-01,
        -2.50283241e-01,1.65518314e-01,-3.50669682e-01,2.34491915e-01,-4.46938574e-01,
        -4.86389935e-01,1.61555603e-01,-1.39223754e-01,-6.27973437e-01,-6.25260174e-01,
        1.16923405e-02,-4.37403589e-01,1.10297605e-01,-3.89195144e-01,-3.95111948e-01,
        -2.37280399e-01,2.17064068e-01,-6.77884743e-02,-1.75949171e-01,1.71497390e-01,
        -1.00576274e-01,5.89095473e-01,3.27736497e-01,1.45082250e-01,1.30758792e-01,
        2.10001335e-01,-1.98087320e-02,1.98216294e-03,1.92760050e-01,-1.31467998e-01,
        1.28580183e-01,3.53573561e-01,-6.17391646e-01,-6.19098283e-02,-3.93340528e-01,
        -4.72943753e-01,-2.86423057e-01,-3.24651569e-01,4.10900488e-02,-2.44785503e-01,
        1.99010193e-01,-1.52528480e-01,4.72678989e-01,5.07025540e-01,-2.15517610e-01,
        -4.04577881e-01,-1.01232462e-01,-2.74410218e-01,6.06883407e-01,-5.85932016e-01,
        1.55691758e-01,4.25281227e-01,-1.91516072e-01,-4.07853335e-01,8.93915072e-02,
        -1.95815280e-01,2.27279328e-02,-9.73590910e-02,-3.08476776e-01,1.31639257e-01,
        1.17837191e-01,1.11546971e-01,1.17595232e+00,8.47725987e-01,1.00866544e+00,
        -3.10347736e-01,8.16013142e-02,9.92167175e-01,-2.12258160e-01,6.72126636e-02,
        -8.71444028e-03,9.07806933e-01,-4.16996896e-01,-4.80313092e-01,7.18382418e-01,
        6.37625754e-01,1.55638799e-01,-1.88129067e-01,-4.12372380e-01,-2.34040365e-01,
        -1.36601239e-01,-3.20845872e-01,-8.96904543e-02,-1.31983474e-01,5.50385118e-01,
        -3.55371028e-01,-2.00429738e-01,1.62216872e-01,7.31630683e-01,3.58092189e-01,
        1.50918648e-01,-3.68523955e-01,-1.20687909e-01,-5.63769937e-01,-2.19754443e-01,
        -2.40041852e-01,-9.34099592e-03,-3.70153226e-02,-3.44567671e-02,7.38787055e-02,
        2.96326429e-01,-1.63650438e-01,-1.09557897e-01,1.98630437e-01,-8.41107070e-02,
        -2.32380688e-01,2.72076815e-01,5.90033174e-01,5.14980376e-01,-5.71893513e-01,
        -3.96172732e-01,1.10427976e+00,8.75225067e-01,3.98547560e-01,-4.88551885e-01,
        -1.16613793e+00,1.09772229e+00,-1.36190295e-01,-4.54583883e-01,2.07240522e-01,
        -2.79478848e-01,4.02874798e-02,1.09988689e+00,9.13798392e-01,1.81304500e-01,
        -3.95232111e-01,1.53011233e-02,-4.78787959e-01,-7.98404887e-02,1.67098492e-01,
        9.39443037e-02,2.76689976e-01,-4.00578231e-03,-2.54869703e-02,-2.04783335e-01,
        3.17517966e-01,-1.37538657e-01,-1.21667802e-01,3.06774676e-01,1.36917830e-01,
        9.52714011e-02,-9.96248126e-02,-1.59275219e-01,-2.60414362e-01,4.69850041e-02,
        3.46631795e-01,5.85889108e-02,5.48168495e-02,-1.04661278e-01,5.31161726e-01,
        2.31714144e-01,1.73076898e-01,-3.17871362e-01,-4.60486293e-01,-4.94350851e-01,
        -7.83338547e-01,-1.14180364e-01,-4.55791146e-01,-2.38151804e-01,-1.84318535e-02,
        -1.51603207e-01,3.09853315e-01,4.31320310e-01,1.51089892e-01,9.51539040e-01,
        4.38877232e-02,-2.60158747e-01,3.77599061e-01,-3.11863959e-01,4.57062811e-01,
    };
    k2c_tensor lstm_1_kernel = {&lstm_1_kernel_array[0],2,1600,{80,20, 1, 1, 1}};
    float lstm_1_recurrent_kernel_array[1600] = {
        -3.95077616e-01,1.59184664e-01,-1.81151837e-01,-4.30778980e-01,3.09906244e-01,
            -1.80339031e-02,-8.85851443e-01,-1.01220918e+00,3.00950944e-01,3.86653692e-01,
            -5.26357770e-01,-1.47767412e-03,6.89005971e-01,-3.69145691e-01,1.78258315e-01,
            -4.72072989e-01,4.64286596e-01,-7.90011510e-02,2.78580129e-01,-4.07801777e-01,
            -2.78754085e-02,-1.69018045e-01,-1.28693625e-01,-7.40538180e-01,1.80287585e-01,
            -1.03192866e+00,-7.34537244e-01,-4.34684575e-01,1.30224064e-01,-1.84116766e-01,
            1.32397079e+00,-1.99372903e-01,-1.31352019e+00,-5.50840534e-02,-4.09726538e-02,
            -4.08963889e-01,-1.07543731e+00,-5.13335943e-01,-2.53628939e-01,3.08297426e-01,
            -4.27239507e-01,8.57676506e-01,-8.78842115e-01,1.00255454e+00,2.87489563e-01,
            8.56747925e-01,-1.24827385e-01,-2.66298980e-01,-6.52107775e-01,-5.94499350e-01,
            4.62483376e-01,-2.55962938e-01,1.25582501e-01,-1.08114451e-01,-1.38606112e-02,
            -6.54642982e-03,3.74776781e-01,-4.32521760e-01,-2.17333376e-01,6.65875599e-02,
            2.05759481e-01,8.12048316e-02,1.90431073e-01,-8.80071878e-01,-1.36988199e+00,
            3.85664850e-02,-2.16718704e-01,-8.42492506e-02,-1.64246142e-01,2.64995486e-01,
            -5.24374008e-01,-3.70235771e-01,-1.43573284e+00,-1.83284652e+00,7.56892860e-02,
            -6.01594597e-02,1.19069263e-01,2.12900043e-01,-8.24897408e-01,-2.59795785e+00,
            -6.02421522e-01,-3.94793808e-01,-9.60334122e-01,-1.78439450e+00,-5.59078097e-01,
            -1.06269968e+00,-4.44850951e-01,-4.62695599e-01,-2.81394631e-01,-4.09447163e-01,
            9.17542577e-01,-8.37866902e-01,-1.61754262e+00,-1.27541196e+00,1.53103876e+00,
            -1.13094676e+00,-2.20555112e-01,3.67509902e-01,-2.05888033e-01,-4.38979939e-02,
            -1.77813113e-01,-4.34716679e-02,-2.51363397e-01,-4.47828054e-01,-2.15404701e+00,
            -3.99146855e-01,-3.87808859e-01,-2.71473885e-01,1.83850937e-02,-2.97358215e-01,
            -1.10421205e+00,-3.63777608e-01,1.08034337e+00,8.85475948e-02,-2.26972289e-02,
            -4.13055122e-01,-3.53205472e-01,2.73607314e-01,1.62292734e-01,-1.61010396e+00,
            1.97684675e-01,2.51225084e-01,-1.08593024e-01,-1.19495940e+00,-1.31829485e-01,
            4.07789201e-01,-1.96662679e-01,5.71536273e-02,1.46669120e-01,-9.77097899e-02,
            -1.36445296e+00,-5.11376932e-03,9.68831778e-02,-8.80789995e-01,-1.48676366e-01,
            2.17454866e-01,1.61071539e-01,3.11029941e-01,7.65279979e-02,-2.26458147e-01,
            -5.31606913e-01,3.50708276e-01,1.91146553e-01,1.62657142e-01,-3.74371260e-01,
            -1.17127195e-01,-9.72023532e-02,-2.79422142e-02,1.85552031e-01,1.38678979e-02,
            -5.55142574e-02,-1.27752379e-01,-2.83241630e-01,-4.77850944e-01,1.77452825e-02,
            -1.69603616e-01,1.27902091e-01,-6.99868724e-02,1.89308047e-01,-2.10048676e-01,
            -3.23779136e-01,-2.87308067e-01,-6.09147735e-03,-1.18747902e+00,-4.28083450e-01,
            -1.91712737e-01,-3.42564464e-01,-1.39189124e-01,-1.86244130e-01,9.12666786e-04,
            -8.62620533e-01,8.22345689e-02,8.57574269e-02,-3.77229840e-01,5.12370393e-02,
            -1.48031667e-01,2.32193753e-01,-5.71618259e-01,-3.00091416e-01,-8.36892053e-02,
            1.69226453e-01,-3.57359499e-01,2.15699703e-01,-2.44268432e-01,-1.41539156e-01,
            -3.94335166e-02,9.31942184e-03,-2.03098848e-01,2.26984724e-01,-1.04709044e-01,
            -5.40516861e-02,-2.97927290e-01,1.54574186e-01,6.89906478e-02,-1.22966185e-01,
            2.97001570e-01,2.15280149e-02,-1.62337124e-01,-1.53099731e-01,-5.05831614e-02,
            2.22128466e-01,1.58933520e-01,-3.62417251e-01,-3.05355668e-01,-2.80555964e-01,
            6.97528049e-02,-4.64145452e-01,-4.55846786e-01,-2.02917922e-02,-3.13724786e-01,
            -1.58977639e-02,1.97977442e-02,-1.80441129e+00,3.37055981e-01,1.45973086e-01,
            -9.73443910e-02,-3.65659207e-01,-1.22226654e-02,-1.76906422e-01,-5.50241947e-01,
            -4.30078477e-01,2.93430299e-01,7.55126774e-02,1.08256131e-01,3.67451489e-01,
            -3.55166465e-01,-3.27238441e-02,-6.80827303e-03,-8.26366469e-02,9.70053524e-02,
            -1.31869197e-01,-1.48830250e-01,-6.45902872e-01,-3.20522577e-01,6.65514469e-02,
            1.43392965e-01,-2.09212989e-01,-3.79172683e-01,-3.71070445e-01,-4.59534347e-01,
            -1.25055313e+00,-4.60027643e-02,3.67827177e-01,-5.16152799e-01,-3.52957249e-01,
            -2.57444471e-01,-2.11432266e+00,-1.35562271e-01,-1.38441479e+00,-1.21381119e-01,
            -1.93245281e-02,3.17375630e-01,-6.96280479e-01,-1.33924305e+00,2.71325797e-01,
            -7.17581093e-01,-5.48931599e-01,-3.63445807e+00,-3.61763954e-01,1.89580753e-01,
            -1.01847923e+00,-2.93665200e-01,-1.13933790e+00,-1.19141412e+00,3.54615718e-01,
            -5.39379902e-02,-4.57057983e-01,-1.16588943e-01,-1.22175202e-01,-2.02949286e-01,
            1.99205965e-01,-1.23739552e+00,5.80387592e-01,-1.67231083e+00,9.04848456e-01,
            -2.13443980e-01,-1.91116065e-01,-1.01961148e+00,6.72633410e-01,1.50014132e-01,
            4.03437763e-01,-7.77963579e-01,-4.96537805e-01,-6.71003282e-01,-1.31566375e-01,
            -7.90570319e-01,-2.38770783e-01,3.11643153e-01,-8.32278371e-01,-1.40247401e-02,
            2.71036476e-01,-7.47366011e-01,-1.45437908e+00,-1.40554810e+00,5.52735209e-01,
            -2.97536641e-01,5.93285970e-02,3.19651127e-01,-2.84442417e-02,8.51359665e-02,
            -2.49423962e-02,-1.82931662e-01,8.53679627e-02,-3.46743017e-01,-1.51320234e-01,
            5.96667349e-01,-3.29106539e-01,-1.46072526e-02,-4.88395631e-01,-2.20473453e-01,
            1.44699901e-01,-2.81962842e-01,9.42693278e-02,-6.39142811e-01,-4.56850320e-01,
            -2.51825631e-01,1.05758473e-01,-1.57241210e-01,-7.34647453e-01,-1.83946013e-01,
            -1.32278895e+00,-1.09369254e+00,-1.45607364e+00,-3.69478792e-01,7.86591232e-01,
            1.60324067e-01,-1.07229662e+00,-2.77517170e-01,-1.18497145e+00,-2.82673895e-01,
            2.01835006e-01,-4.90079731e-01,4.89842147e-01,-3.51309627e-01,1.63064733e-01,
            -6.16543293e-01,-5.43584406e-01,-2.04030418e+00,5.90416372e-01,2.79984146e-01,
            2.86369294e-01,-3.51164877e-01,-7.69084785e-04,-2.35003158e-01,-8.37591529e-01,
            4.70122755e-01,-1.53127015e-01,-2.14679271e-01,4.98252034e-01,-2.77206600e-01,
            1.60239667e-01,1.31322518e-01,-2.39504874e-01,-5.61109006e-01,8.28414798e-01,
            -3.08962464e-01,-8.91053617e-01,-9.55730140e-01,-4.93795007e-01,-3.04363072e-01,
            -4.12585139e-01,-1.79225579e-01,6.80711120e-02,-5.91225147e-01,-2.28099525e-01,
            -4.47333664e-01,1.00573688e-03,-2.30135508e-02,2.92205483e-01,2.17458516e-01,
            -9.99461338e-02,5.99527597e-01,-6.84589520e-03,-1.51717639e+00,1.60335287e-01,
            -2.42816612e-01,-5.43470800e-01,-3.06574017e-01,-5.10390699e-01,-3.80690366e-01,
            -7.07200527e-01,-1.41576207e+00,-4.68229949e-01,-3.65199670e-02,-2.23502293e-01,
            -1.16952248e-01,-1.37388408e+00,-3.51109743e-01,-4.45614904e-01,-3.27659249e-01,
            1.50009021e-01,-3.43862355e-01,-1.60391569e+00,-2.33043647e+00,1.14137423e+00,
            2.61821039e-02,-1.61784601e+00,-1.34675479e+00,7.46228099e-02,-3.17372501e-01,
            -2.15432137e-01,-3.06506783e-01,-4.38799232e-01,-2.50816047e-01,2.26072833e-01,
            6.74930632e-01,-6.25316918e-01,4.18889284e-01,5.56539670e-02,1.79969579e-01,
            -8.41839090e-02,2.27397233e-01,1.13887273e-01,-3.10730815e-01,4.00568336e-01,
            -1.87085748e-01,-1.61386684e-01,-2.60186434e-01,-1.69829577e-01,-2.57851869e-01,
            2.54533231e-01,-1.52441025e-01,-7.32515395e-01,-5.81073225e-01,1.62815452e-01,
            -1.34956077e-01,-3.33485097e-01,-1.48483574e-01,1.25890732e-01,-5.42221926e-02,
            1.48291543e-01,-2.57671207e-01,9.45827603e-01,4.53813434e-01,-2.39227377e-02,
            5.24341986e-02,2.07909808e-01,-5.85490644e-01,-8.51991057e-01,1.38895214e-01,
            5.28613091e-01,3.49463582e-01,-5.98574020e-02,-1.64842874e-01,-6.11141622e-01,
            1.17064428e+00,4.13260579e-01,-1.23379000e-01,2.54846271e-02,-3.27386141e-01,
            -2.47576475e-01,2.85595655e-01,-1.70100834e-02,-4.24348384e-01,-1.81246892e-01,
            4.71962206e-02,3.30245882e-01,7.37149417e-02,-4.82465386e-01,-8.89617622e-01,
            -2.70631254e-01,9.27032381e-02,1.68388093e+00,-2.97928572e-01,-1.81916797e+00,
            -3.72673452e-01,8.79720151e-01,1.94072068e-01,3.80960822e-01,-1.74129605e-01,
            -3.99221987e-01,-2.02846210e-02,-3.37714434e+00,-2.13289559e-01,-4.38031107e-01,
            4.50972319e-02,1.09658323e-01,-3.24642360e-01,-1.20355785e+00,-8.05671811e-01,
            3.32685709e-02,-3.32317054e-01,-4.81068581e-01,1.06160784e+00,-2.75622457e-01,
            3.00159186e-01,-1.27022266e-01,9.04005170e-02,-5.74123919e-01,1.22166336e-01,
            -4.96130250e-02,-1.38925076e-01,1.71898544e+00,1.77493840e-01,1.17852283e+00,
            -3.65605354e-01,-1.00633681e+00,-3.67373616e-01,7.14768648e-01,4.78605688e-01,
            1.88838899e-01,-7.92019129e-01,-2.73429863e-02,5.60045838e-02,-1.06278852e-01,
            -2.73136079e-01,3.62063795e-02,1.20785534e-01,-8.92890543e-02,-4.67032164e-01,
            -2.54372388e-01,6.01496957e-02,-1.20136762e+00,-7.87990272e-01,7.49533181e-04,
            3.06745350e-01,-5.30984819e-01,-2.22858265e-01,-6.37260258e-01,-2.17843115e-01,
            9.93895382e-02,-6.63148835e-02,-2.33779401e-01,-6.78427815e-01,-1.73249394e-01,
            6.27098262e-01,-1.41125768e-01,2.19014868e-01,-7.60086253e-02,1.49262115e-01,
            -1.63251102e+00,-1.77001894e-01,-2.02678919e-01,7.90658295e-02,-5.89705594e-02,
            3.29771996e-01,-1.13974369e+00,-2.70379543e-01,3.14238295e-02,-4.89070952e-01,
            -8.02061558e-02,3.43533456e-01,-1.23391174e-01,-5.94290137e-01,-1.59742102e-01,
            4.25230056e-01,-1.74971148e-01,-3.14411551e-01,3.25313240e-01,1.58963397e-01,
            1.19986832e-01,1.06296130e-01,-6.58928975e-02,-6.66069150e-01,-6.16877787e-02,
            2.29322091e-01,1.73106179e-01,3.67522761e-02,-1.73135251e-01,-5.40192053e-02,
            -1.05754972e-01,-5.78879453e-02,-1.94308266e-01,-5.92990875e-01,-4.70992357e-01,
            6.41088009e-01,2.57640421e-01,-1.35533074e-02,8.59471709e-02,1.06973931e-01,
            -4.06743288e-01,5.94467342e-01,-3.28726500e-01,-1.90430522e-01,1.42560333e-01,
            3.42253357e-01,-1.62019342e-01,-1.46044463e-01,-9.68414426e-01,-4.76038069e-01,
            2.09923983e-01,-1.69569165e-01,-3.62037867e-01,-6.71495557e-01,-2.87794054e-01,
            2.77667165e-01,3.38018313e-02,7.25121573e-02,-1.61657929e-01,-3.74783725e-01,
            -2.96636343e-01,5.16911924e-01,2.18492433e-01,1.45010516e-01,-1.40630648e-01,
            -3.70763272e-01,-1.16640680e-01,7.04407245e-02,-6.55034304e-01,-7.19902813e-02,
            5.50784945e-01,1.05573431e-01,1.20196871e-01,5.24573147e-01,5.34363508e-01,
            -3.25780720e-01,1.03286922e+00,-5.50346613e-01,-4.24865037e-01,-5.76852413e-04,
            -3.02010626e-01,-5.54475844e-01,7.06555903e-01,-5.89396536e-01,6.35860860e-01,
            -4.32718784e-01,-3.82721156e-01,-9.21297908e-01,-2.34389119e-02,1.08899802e-01,
            -5.95066845e-02,1.80171534e-01,4.10682596e-02,7.18202516e-02,1.99430753e-02,
            1.27916384e+00,-1.92177683e-01,6.34056330e-02,-1.29394919e-01,1.58575878e-01,
            -1.05310068e-01,-8.25078934e-02,-8.61066699e-01,6.09081268e-01,-3.00230503e-01,
            -1.38355821e-01,4.39336896e-01,1.21497668e-01,-4.62982059e-02,-5.44412613e-01,
            -2.30371691e-02,8.51675093e-01,-1.66685867e+00,2.21998024e+00,3.50593209e-01,
            5.02001420e-02,6.72042191e-01,3.17166597e-01,-1.31444678e-01,-5.09158015e-01,
            -8.38704884e-01,1.69312209e-01,2.95180202e-01,-2.79841602e-01,-3.58478397e-01,
            -1.78323269e-01,-2.99539179e-01,-6.60287678e-01,-3.33650559e-01,-1.78041548e-01,
            -2.31390283e-01,-9.27993581e-02,-3.87818575e-01,3.92194092e-01,3.94294620e-01,
            1.99708015e-01,-2.43750721e-01,-3.62782814e-02,-4.69897874e-02,-3.45317870e-01,
            1.86490845e-02,-4.18142021e-01,-7.26744533e-02,1.53246835e-01,4.51164752e-01,
            4.52889353e-02,-4.11293447e-01,-2.68597931e-01,6.86159611e-01,-3.80554534e-02,
            1.97556630e-01,-1.34792578e+00,-2.14768965e-02,3.53543490e-01,1.04629263e-01,
            -2.60515034e-01,-1.96311235e-01,-3.77785474e-01,-2.97934055e-01,-3.81129771e-01,
            1.32241607e-01,-2.21660301e-01,-5.27726710e-01,9.24889594e-02,-2.00916573e-01,
            -3.70341003e-01,-8.16682279e-02,-5.20166516e-01,1.77718140e-02,5.30619919e-01,
            -6.93582177e-01,-3.05792660e-01,-1.75183386e-01,-7.24899888e-01,-4.73039567e-01,
            6.98356569e-01,-1.72200158e-01,-1.29092857e-01,5.19889593e-02,-1.76990598e-01,
            3.51069272e-01,-3.17086130e-01,-1.26320451e-01,-5.34376204e-01,2.51879245e-01,
            -1.31081209e-01,3.35564092e-02,1.14727601e-01,1.78110227e-01,-8.87056887e-01,
            -3.19439679e-01,1.60634249e-01,-2.01855645e-01,2.48297259e-01,1.39013007e-01,
            -1.80878565e-02,6.25930905e-01,2.36447696e-02,2.94121727e-02,-2.38568902e-01,
            3.53566766e-01,-2.61736065e-01,-1.21044785e-01,8.21388736e-02,-4.49653059e-01,
            -4.64190483e-01,-3.88949960e-01,-2.43747011e-01,-1.92983318e-02,9.89582688e-02,
            2.44204444e-03,-2.75919318e-01,-2.11122707e-01,-3.00060183e-01,-4.77239311e-01,
            7.83890784e-01,1.03180087e+00,3.74841578e-02,4.80046384e-02,-3.79893601e-01,
            8.15449595e-01,3.39769483e-01,-1.05155206e+00,3.08972538e-01,-3.79155576e-01,
            -6.06845468e-02,2.82618012e-02,-1.24807209e-01,-4.20382112e-01,-2.60892183e-01,
            -4.99286413e-01,-3.03283900e-01,2.47577146e-01,-8.05032790e-01,7.24908104e-03,
            7.59732053e-02,-5.33599555e-01,-2.45873053e-02,8.63852799e-01,2.07697064e-01,
            -5.50420471e-02,8.63169208e-02,-5.57805657e-01,7.29809403e-01,3.86751711e-01,
            1.35397702e-01,-1.82154309e-02,1.90540209e-01,-1.14342369e-01,4.84510884e-02,
            6.69371188e-01,2.33184829e-01,2.06973359e-01,5.12077101e-02,5.80529273e-01,
            6.33818865e-01,2.29146034e-01,7.61563927e-02,-1.35985196e-01,-3.16565603e-01,
            -9.37973261e-02,-4.21058387e-01,8.87493268e-02,4.85583842e-02,-3.30039918e-01,
            3.81707668e-01,2.91886836e-01,-1.15044350e-02,5.57179987e-01,-4.81981069e-01,
            -2.75668889e-01,-3.53758723e-01,-1.35478778e-02,-1.14427531e+00,-4.88943279e-01,
            2.53377289e-01,-5.97773567e-02,-4.75721300e-01,8.53259787e-02,5.62730908e-01,
            -2.63635695e-01,-1.28718547e-03,-1.46297351e-01,-2.05985382e-01,2.39822015e-01,
            -2.67196447e-01,-1.64957106e-01,-5.72037756e-01,1.73497394e-01,-5.90094328e-01,
            5.09371519e-01,-6.51359797e-01,-1.18134105e+00,-9.84772325e-01,6.23110868e-02,
            -9.94674265e-01,-5.41599274e-01,1.00901142e-01,3.63046408e-01,-3.25689614e-01,
            2.91799873e-01,1.79529175e-01,-1.14129376e+00,-2.08065212e-01,1.03440680e-01,
            -9.89077747e-01,-9.47538197e-01,7.30670691e-02,-6.15008235e-01,5.22687554e-01,
            6.28334358e-02,2.10225761e-01,-3.47075403e-01,8.05028021e-01,-3.49060237e-01,
            8.88339162e-01,-2.44562969e-01,-3.14394712e-01,-5.43535471e-01,-1.47069737e-01,
            3.16241235e-01,-1.99206844e-01,2.49324962e-01,-6.51043057e-02,-5.23274183e-01,
            -1.17842667e-02,2.98889041e-01,-2.05311939e-01,-9.09254611e-01,-4.13615286e-01,
            -3.53416279e-02,-3.81560355e-01,8.63525748e-01,-7.99011409e-01,-1.33218825e+00,
            -6.23417087e-03,-1.00267267e+00,2.77858734e-01,-9.08374563e-02,3.15770298e-01,
            -6.84129119e-01,-5.40031791e-01,-1.08871746e+00,-2.07778454e+00,-4.25336868e-01,
            8.61857906e-02,-3.91767770e-01,-4.99731928e-01,-1.62471414e+00,-2.62415004e+00,
            -9.89714682e-01,-6.18610203e-01,-1.89711237e+00,-8.60184968e-01,-6.71606660e-01,
            -6.94676518e-01,3.30939263e-01,-2.61207879e-01,1.86904728e-01,-3.91521990e-01,
            -1.56244086e-02,-7.13564813e-01,-6.44086242e-01,-1.57245100e+00,-7.17675611e-02,
            -6.15592301e-01,-5.15439391e-01,1.03872105e-01,2.83840358e-01,3.42164963e-01,
            -1.07453965e-01,-1.07754640e-01,1.08128376e-01,-1.52195260e-01,-4.51817572e-01,
            -5.01262546e-01,8.05725232e-02,-2.08326802e-01,-1.18682034e-01,7.61149749e-02,
            -7.77600646e-01,-6.69129312e-01,-3.60077590e-01,-3.29364061e-01,-2.46725142e-01,
            4.65272009e-01,-4.01304096e-01,-2.22473182e-02,-6.76074103e-02,-1.55746996e+00,
            1.80670902e-01,3.00284624e-01,-3.45140308e-01,-1.33064008e+00,2.73820490e-01,
            2.58933544e-01,-3.44417274e-01,-1.87674657e-01,-8.67061540e-02,4.43632863e-02,
            -3.39283437e-01,-1.68721572e-01,-7.92020336e-02,-7.29509652e-01,3.20050120e-01,
            2.77490288e-01,-1.70946524e-01,4.43421416e-02,1.67900458e-01,-4.53873575e-02,
            1.01245053e-01,-1.73224002e-01,-1.15844280e-01,6.09431230e-02,-2.00356975e-01,
            6.65182829e-01,-2.00312018e-01,-1.67055622e-01,8.75590462e-03,-2.94727329e-02,
            4.37558256e-02,1.33791313e-01,3.49303335e-01,-2.17409447e-01,-4.84321743e-01,
            9.85301808e-02,-3.76085453e-02,-1.51926637e-01,-1.09136716e-01,-5.80494165e-01,
            4.34609830e-01,-2.03684121e-01,5.08661270e-02,-1.23366165e+00,-9.38909531e-01,
            5.25348075e-03,1.78237125e-01,7.84888938e-02,-3.83503437e-01,-6.20037392e-02,
            -1.00744128e+00,-4.20692086e-01,1.23808742e-01,-6.70255542e-01,2.28483930e-01,
            1.02233747e-02,-1.92446187e-01,-2.82397419e-01,-7.51995564e-01,2.35057622e-02,
            4.32902664e-01,-4.82292213e-02,-1.13431159e-02,-3.24620396e-01,-4.89270240e-01,
            -5.38880518e-03,1.06272541e-01,6.56994507e-02,1.23320252e-01,-3.31732273e-01,
            -7.73448125e-02,-1.43515617e-01,1.84930742e-01,-2.86774129e-01,-2.29822367e-01,
            1.21585555e-01,1.79197624e-01,9.02025923e-02,-9.26080942e-02,-2.22136542e-01,
            3.00324768e-01,5.60758173e-01,-4.87451375e-01,2.37536833e-01,2.12274492e-01,
            -6.86707571e-02,-5.73500812e-01,-3.16771865e-01,-1.90889731e-01,-1.26359195e-01,
            -4.89474386e-02,-1.44000903e-01,-4.53545153e-02,6.66534781e-01,-4.06545490e-01,
            -4.00067151e-01,-3.28011870e-01,7.60903358e-02,-2.68549919e-01,5.04599750e-01,
            -2.68511064e-02,1.96701929e-01,-1.73056275e-01,2.09361330e-01,1.58179432e-01,
            1.64879650e-01,-2.73007393e-01,2.23964304e-01,7.72516010e-04,2.23460585e-01,
            -1.10360190e-01,-1.72164410e-01,-6.68103099e-01,-6.61753640e-02,2.23164022e-01,
            -2.47195382e-02,-3.79342675e-01,-7.36418366e-02,-1.30750269e-01,-4.89558369e-01,
            -9.35483336e-01,2.97854602e-01,4.01551217e-01,-9.76585075e-02,7.81605840e-01,
            2.51246989e-01,-9.96295154e-01,-4.54322308e-01,-1.02750099e+00,-3.31531078e-01,
            8.19535553e-01,7.36823380e-01,1.17473155e-01,-1.72915781e+00,-2.52174109e-01,
            -1.56099176e+00,9.79164243e-02,-3.01169705e+00,-2.40944147e-01,1.19656205e+00,
            -4.47805226e-01,9.42744017e-02,-7.44675100e-01,-7.93479204e-01,3.76306683e-01,
            1.01632901e-01,-3.99575263e-01,-2.57778972e-01,-4.26787622e-02,-3.29917014e-01,
            2.40281224e-01,8.61360580e-02,-4.18896556e-01,-1.54901099e+00,2.74933159e-01,
            -4.73608933e-02,-5.61265469e-01,-1.01773620e+00,5.50561965e-01,5.82244039e-01,
            -5.88345051e-01,-3.48027796e-01,-6.73880994e-01,-1.03972793e+00,9.39739868e-02,
            -3.75708699e-01,-1.99972600e-01,3.00266623e-01,-3.52022737e-01,2.49464154e-01,
            1.02113253e-02,-4.72822279e-01,-1.70703971e+00,-1.25976706e+00,-8.65319312e-01,
            -3.15569878e-01,-3.92139941e-01,1.44859061e-01,2.10718945e-01,-7.16175675e-01,
            -3.32592577e-01,-4.26642388e-01,4.72354144e-01,-6.55750155e-01,-3.46334428e-01,
            9.89465341e-02,-4.35408413e-01,-1.17720984e-01,-5.79761326e-01,2.82379356e-03,
            1.76798597e-01,-6.72461241e-02,2.09429666e-01,-8.07907999e-01,-2.26577058e-01,
            -1.57297730e-01,6.32033944e-02,2.31566742e-01,-4.10147637e-01,-4.46314156e-01,
            -1.77058160e+00,-9.08029556e-01,-9.46848154e-01,6.54812902e-02,-7.91551545e-03,
            -9.55228359e-02,-1.31584084e+00,-6.75120831e-01,-9.00991559e-01,-4.74851936e-01,
            1.83228388e-01,-3.49173844e-01,2.75515206e-03,-1.23019636e-01,-2.05219686e-01,
            -1.47743034e+00,-3.76763850e-01,-1.53803241e+00,1.80647433e-01,1.04495607e-01,
            -3.37770134e-01,-4.21771646e-01,6.79973543e-01,5.20500720e-01,-1.10044098e+00,
            5.08957148e-01,-2.28117302e-01,-1.32437944e-01,-4.25664522e-02,-3.25087219e-01,
            -5.23303568e-01,4.22828883e-01,2.44847372e-01,-1.13299298e+00,7.76524544e-02,
            3.18676144e-01,-1.07062280e+00,-7.92887747e-01,-9.70221698e-01,-4.67408448e-01,
            -2.34365597e-01,1.49568945e-01,-1.55274466e-01,-2.71089096e-02,-6.94349259e-02,
            -1.72142982e-01,-9.56416205e-02,9.49492380e-02,-1.54942334e-01,3.51316631e-01,
            3.30399834e-02,1.82101279e-01,-2.21754387e-01,-1.14007437e+00,4.35252279e-01,
            -5.71354806e-01,-7.90146291e-01,-9.41985846e-02,-6.29552186e-01,2.43584260e-01,
            -1.14018691e+00,-4.89873290e-01,4.75457788e-01,4.05111730e-01,1.63825616e-01,
            2.18253314e-01,-3.55507970e-01,-1.98464036e-01,-7.74253309e-01,-3.35184336e-01,
            5.76842904e-01,-7.24181682e-02,-6.47325695e-01,-2.56725168e+00,-4.47472483e-01,
            -1.89092666e-01,-2.52858967e-01,-1.15860927e+00,2.98233241e-01,-1.58136189e-01,
            8.86104852e-02,5.32117113e-02,-5.48000872e-01,-2.61492163e-01,1.00960052e+00,
            -2.92379797e-01,-6.31456017e-01,-2.77656913e-01,-3.91926289e-01,3.34057510e-01,
            8.12908188e-02,2.02712670e-01,6.92961633e-01,-5.11430763e-02,4.38276261e-01,
            -1.14191338e-01,6.77457511e-01,-4.79699850e-01,3.42273176e-01,2.54424840e-01,
            -4.62555466e-03,-1.54101877e-02,-6.92192495e-01,3.92999232e-01,2.56328493e-01,
            -5.76350510e-01,-9.75322485e-01,-5.26619792e-01,-6.75397277e-01,1.09669097e-01,
            8.36965501e-01,2.33316004e-01,9.00425315e-01,1.94712907e-01,-4.37023155e-02,
            -5.45788944e-01,6.55814469e-01,-7.36286044e-01,-5.70153236e-01,4.56805170e-01,
            3.10313582e-01,-7.85139799e-02,-3.70210499e-01,1.68980241e-01,8.68315756e-01,
            7.52539515e-01,1.77740797e-01,4.91430704e-03,-2.04288334e-01,-3.58575433e-01,
            6.91584289e-01,-8.07362944e-02,-5.44591665e-01,9.85892266e-02,-3.69666606e-01,
            1.52266800e-01,1.40316738e-02,-2.37081069e-02,1.30296811e-01,-4.61402059e-01,
            -1.62910640e-01,8.37520182e-01,-9.31200981e-02,-7.39748836e-01,-6.69427872e-01,
            -5.30797243e-02,1.91496208e-03,-2.94926763e-01,6.32176697e-02,2.75243551e-01,
            -6.67184055e-01,3.18813622e-01,-2.89954162e+00,7.47319758e-02,2.41821036e-01,
            1.45018488e-01,9.35954750e-01,1.31970923e-02,-1.16164351e+00,-6.78512514e-01,
            -2.35333979e-01,2.84682274e-01,-3.84506673e-01,4.29555863e-01,7.91265517e-02,
            -4.06769589e-02,-5.12424409e-01,-1.67519376e-01,-4.32751477e-01,2.67081428e-02,
            8.20663273e-01,-5.47377467e-01,8.21039677e-01,5.99611476e-02,-2.07090035e-01,
            -8.87631893e-01,-7.95215145e-02,1.21850677e-01,6.76918209e-01,2.39397064e-01,
            2.26358086e-01,-2.65000015e-01,-2.15786874e-01,-8.53221536e-01,8.62242803e-02,
            -2.38179609e-01,-3.30405980e-01,-6.76124617e-02,-1.80105060e-01,-1.59922034e-01,
            -8.86087567e-02,9.42728519e-02,-1.70049620e+00,-2.36920133e-01,-5.13400789e-03,
            -2.07359660e-02,6.79121315e-01,9.64824557e-02,-5.14109313e-01,-2.98516750e-01,
            -4.34418023e-02,2.09500208e-01,-1.83557436e-01,-9.55457747e-01,5.05264938e-01,
            1.05914801e-01,-2.94605702e-01,7.61059374e-02,-8.02398473e-02,2.39892080e-01,
            -1.08986950e+00,-2.35642314e-01,-9.88098010e-02,-6.81637228e-02,-1.48688406e-01,
            1.19705223e-01,-1.05267406e+00,-1.56674590e-02,-4.22348604e-02,3.08185238e-02,
            1.46282732e-01,1.42065987e-01,-8.70848447e-02,-1.08623636e+00,-3.34443599e-02,
            -6.65859729e-02,-1.04818210e-01,-2.82525927e-01,7.96086639e-02,1.64822757e-01,
            1.24833636e-01,-2.41989419e-01,-3.48557197e-02,-1.48050934e-01,2.58000731e-01,
            3.69990543e-02,1.05936751e-02,-2.17545703e-02,2.47494858e-02,-1.90899044e-01,
            -8.09246954e-03,-6.37414008e-02,9.46356058e-02,-4.87696022e-01,-1.37044102e-01,
            -1.39324358e-02,-1.02522932e-01,3.73494364e-02,-1.99096277e-01,-4.95994203e-02,
            -8.59631151e-02,-4.26224098e-02,1.55908331e-01,1.26242682e-01,1.30870730e-01,
            -1.85528204e-01,-1.30720824e-01,1.68219522e-01,-9.71910834e-01,-1.39133379e-01,
            -1.30311444e-01,-3.55584800e-01,-3.04660290e-01,-5.40286183e-01,-2.63593972e-01,
            -4.05569300e-02,4.50478435e-01,1.92787312e-02,-9.85663161e-02,-2.39262089e-01,
            -2.45798722e-01,1.31600142e-01,1.86830629e-02,-1.03917554e-01,-4.94760096e-01,
            -1.02048907e-02,7.72095695e-02,-6.14885874e-02,-7.16244102e-01,-2.95333594e-01,
            1.03649676e+00,6.16285086e-01,3.02173525e-01,1.27992079e-01,-2.32674226e-01,
            -4.06481437e-02,4.94625419e-01,-4.59409267e-01,-8.03626031e-02,-2.18426898e-01,
            5.33678047e-02,-5.31397402e-01,-1.69778109e-01,-7.56584525e-01,-4.31062251e-01,
            -5.05633235e-01,-4.24864352e-01,7.05625266e-02,4.79440480e-01,-1.43018007e-01,
            -1.65339738e-01,-1.22488998e-01,1.96251303e-01,-3.55571732e-02,7.20398843e-01,
            -1.56174943e-01,-1.67123988e-01,-1.57038555e-01,-5.16499162e-01,-4.73234616e-02,
            -4.39549327e-01,-2.20194370e-01,-2.63352513e-01,9.04637814e-01,-1.21324368e-01,
            -2.47564256e-01,2.42408454e-01,-1.33677348e-01,-5.21742515e-02,-6.17455602e-01,
            -5.99809527e-01,1.43906415e+00,-2.55416840e-01,1.73987675e+00,-3.57685804e-01,
            1.29371333e+00,1.39018014e-01,-1.15891628e-01,-5.72025716e-01,4.99904007e-02,
            1.47362089e+00,1.04985535e-01,1.13564573e-01,-3.52343798e-01,-4.84779358e-01,
            -8.11231554e-01,-4.14649159e-01,1.92627355e-01,8.29181820e-02,-3.47675651e-01,
            -4.97199327e-01,1.48986375e+00,-2.80416399e-01,-2.83372700e-01,6.32120728e-01,
            8.35055590e-01,-3.44534248e-01,-1.18315414e-01,-3.14112082e-02,-4.12651032e-01,
            1.44759603e-02,2.40888476e-01,6.05746210e-01,-2.89739996e-01,3.71254593e-01,
            1.30958751e-01,-1.08950131e-01,-2.85933763e-01,4.91099387e-01,1.75081506e-01,
            -1.84374079e-02,-8.82157743e-01,-3.65825504e-01,9.10266101e-01,5.64959109e-01,
            -2.12283820e-01,-2.20654130e-01,1.11209132e-01,-4.02621746e-01,3.88858691e-02,
            3.05114746e-01,-1.61653653e-01,1.02607787e+00,2.70336956e-01,-1.43915802e-01,
            -2.97587872e-01,2.30264232e-01,1.71266459e-02,4.20786768e-01,1.02906275e+00,
            -7.23672032e-01,-1.69398487e-01,-2.04836369e-01,-1.05225766e+00,2.73560315e-01,
            2.21113101e-01,-1.99219897e-01,-2.38284133e-02,-3.14413041e-01,-1.86163843e-01,
            3.22907031e-01,-2.86820009e-02,9.29502770e-02,-9.07618225e-01,9.25769582e-02,
            -2.62893826e-01,2.51337498e-01,2.23060772e-02,2.77346522e-01,-1.04765201e+00,
            -9.79178667e-01,-2.60221481e-01,-4.92919445e-01,-6.62340283e-01,1.09923613e+00,
            6.38634264e-01,-6.79219738e-02,2.88194623e-02,1.08151309e-01,-1.08062498e-01,
            4.75154877e-01,-2.18558639e-01,2.43236989e-01,2.26055786e-01,-2.61794239e-01,
            -3.68328840e-01,6.05325848e-02,2.05071419e-01,1.18856266e-01,-9.94670928e-01,
            3.65828872e-01,4.16026682e-01,-1.09951712e-01,-2.25955799e-01,-5.34628332e-01,
            1.25435799e-01,-2.24891320e-01,1.86287519e-02,-4.28274244e-01,-6.27215445e-01,
            6.24853969e-01,1.05131291e-01,-1.85199022e-01,-6.58750713e-01,6.92770898e-01,
            6.56488165e-02,-4.91772354e-01,-2.09049046e-01,-2.51450658e-01,8.19580853e-01,
            -9.30623040e-02,6.25496805e-01,-1.88718647e-01,2.41232052e-01,-4.34487276e-02,
            -9.10008788e-01,-4.21441257e-01,-2.24799976e-01,1.93550333e-01,1.29198059e-01,
            4.05207910e-02,1.44873038e-01,-8.77296388e-01,1.80598214e-01,-4.50968146e-01,
            -1.92864791e-01,-7.48827457e-01,-1.88985243e-01,2.38738567e-01,-4.31463718e-01,
            1.64403126e-01,6.46881640e-01,4.67604510e-02,1.85743690e+00,-1.79311544e-01,
            2.49214008e-01,-2.99804211e-01,-5.29230595e-01,-3.91117215e-01,-3.59156609e-01,
            3.11391409e-02,2.78980821e-01,5.01902759e-01,3.70161265e-01,-8.71077538e-01,
            -1.11864068e-01,-1.49930358e-01,-3.37531179e-01,6.51680648e-01,-2.42950186e-01,
        };
    k2c_tensor lstm_1_recurrent_kernel = {&lstm_1_recurrent_kernel_array[0],2,1600,{80,20, 1, 1, 1}};
    float lstm_1_bias_array[80] = {
        4.35953178e-02,4.24750755e-03,5.82276992e-02,-4.06354740e-02,-1.23434961e-01,
        -3.71276796e-01,-2.92630494e-01,-1.94907069e-01,-8.81319568e-02,-4.04538929e-01,
        1.42067790e-01,-6.03933856e-02,5.50706089e-01,-1.49431959e-01,7.13348866e-01,
        -1.29227117e-01,-1.77278761e-02,-2.87038147e-01,-3.78671944e-01,6.01309836e-01,
        8.89642477e-01,8.93461227e-01,1.00357342e+00,1.00970447e+00,8.35569799e-01,
        9.49237943e-01,9.53448951e-01,8.58459651e-01,8.00690472e-01,5.66445291e-01,
        6.90728724e-01,9.11798358e-01,1.17727017e+00,1.43345118e+00,3.99320841e-01,
        8.24955344e-01,9.82209802e-01,1.65119612e+00,7.57092834e-01,1.24435580e+00,
        2.74271548e-01,-2.22272903e-01,6.11696988e-02,2.98937231e-01,9.84395221e-02,
        2.69798219e-01,2.98457325e-01,-1.73827663e-01,-2.56452233e-01,-4.21010107e-01,
        -3.51166651e-02,-2.81685531e-01,5.60178578e-01,2.56443828e-01,-4.60495293e-01,
        -7.83147961e-02,1.61232874e-01,7.14233592e-02,-2.94126809e-01,2.45383512e-02,
        2.96837278e-03,5.97756565e-01,-3.83139439e-02,-1.14953399e-01,1.64117426e-01,
        -1.17794000e-01,-3.78628790e-01,-2.31444880e-01,-5.79990029e-01,-4.09552336e-01,
        1.44339576e-01,9.19854343e-02,1.07097395e-01,4.45194006e-01,-6.18979111e-02,
        -2.48824954e-01,-1.47922128e-01,-5.10542467e-02,-3.03437393e-02,2.92861879e-01,
    };
    k2c_tensor lstm_1_bias = {&lstm_1_bias_array[0],1,80,{80, 1, 1, 1, 1}};


    float dense_3_kernel_array[600] = {
        -8.95873085e-02,-8.74630883e-02,-8.14430416e-02,-7.28106126e-02,-6.23679385e-02,
            -4.54347916e-02,-2.77408510e-02,-1.29740322e-02,-1.32212685e-02,-1.11595690e-02,
            -1.32738426e-02,-1.96743645e-02,-3.68079320e-02,-6.66168183e-02,-9.44224820e-02,
            -1.26534477e-01,-1.45163879e-01,-1.73542991e-01,-2.14742243e-01,-2.55843997e-01,
            -2.72237718e-01,-2.75670350e-01,-2.76165366e-01,-2.71730661e-01,-2.64627934e-01,
            -2.48606652e-01,-2.47223198e-01,-2.38045141e-01,-2.55335063e-01,-3.47145051e-01,
            2.10901007e-01,2.12446988e-01,2.16358483e-01,2.21705258e-01,2.26912573e-01,
            2.32374057e-01,2.35552475e-01,2.34724879e-01,2.27575794e-01,2.14568779e-01,
            2.00732648e-01,1.90454230e-01,1.83940336e-01,1.76827118e-01,1.50882378e-01,
            1.17372409e-01,1.21010646e-01,1.25926465e-01,1.38705805e-01,1.65734783e-01,
            2.07335427e-01,2.39569381e-01,2.76647389e-01,3.32689285e-01,3.95589441e-01,
            4.54020739e-01,5.07791042e-01,5.52059531e-01,5.50027430e-01,5.32590687e-01,
            -3.67044657e-01,-3.73137623e-01,-3.90515685e-01,-4.17000055e-01,-4.51083064e-01,
            -4.93371189e-01,-5.38893998e-01,-5.82617104e-01,-6.17945850e-01,-6.41479433e-01,
            -6.56470299e-01,-6.66018486e-01,-6.67863071e-01,-6.55928314e-01,-6.16544068e-01,
            -5.04075706e-01,-4.65781063e-01,-4.19363827e-01,-3.69977564e-01,-3.27210605e-01,
            -2.96524525e-01,-2.87519634e-01,-2.85191029e-01,-3.03375214e-01,-3.27214658e-01,
            -3.45817327e-01,-3.60308170e-01,-3.65935296e-01,-3.62071842e-01,-3.64218175e-01,
            -3.08833212e-01,-3.01412225e-01,-2.80827314e-01,-2.49595389e-01,-2.10188165e-01,
            -1.62581712e-01,-1.12914987e-01,-6.70424700e-02,-3.43939066e-02,-1.83788408e-02,
            -1.22007271e-02,-1.05404872e-02,-1.65515523e-02,-3.87403741e-02,-1.11814901e-01,
            -2.88286030e-01,-3.27211112e-01,-3.72786254e-01,-4.10379827e-01,-4.15183693e-01,
            -3.64903450e-01,-3.13438863e-01,-2.52359360e-01,-1.74972177e-01,-9.04917270e-02,
            -1.39687315e-03,9.85814333e-02,2.03053653e-01,2.94793248e-01,3.74283969e-01,
            -1.05685383e-01,-1.03144735e-01,-9.60016400e-02,-8.47799703e-02,-7.06067756e-02,
            -5.23499548e-02,-3.34202722e-02,-1.75449699e-02,-8.52307118e-03,-1.08798807e-02,
            -1.94389634e-02,-3.16505283e-02,-4.89848480e-02,-7.46251643e-02,-1.25988126e-01,
            -1.99771911e-01,-2.04465777e-01,-2.08384618e-01,-2.03014478e-01,-1.75356477e-01,
            -1.13502227e-01,-6.59542233e-02,-1.69203244e-02,3.70953418e-02,9.04371589e-02,
            1.43479496e-01,2.02733785e-01,2.59355664e-01,2.90625364e-01,2.96912700e-01,
            5.08454293e-02,5.16766831e-02,5.27060628e-02,5.43937273e-02,5.55991381e-02,
            5.42616323e-02,5.21117970e-02,4.79331762e-02,4.02597040e-02,3.05802803e-02,
            2.21216753e-02,1.74543746e-02,1.83611792e-02,2.27970332e-02,2.03603525e-02,
            -6.58914819e-03,-1.40625890e-02,-2.81300154e-02,-5.41857295e-02,-9.57463235e-02,
            -1.60574883e-01,-2.07789809e-01,-2.62135476e-01,-3.31634730e-01,-4.10496294e-01,
            -4.95587915e-01,-5.86323202e-01,-6.50758147e-01,-6.63151383e-01,-5.94386697e-01,
            -5.58416583e-02,-5.49832955e-02,-5.22692390e-02,-4.81607802e-02,-4.27903570e-02,
            -3.56263183e-02,-2.76235994e-02,-1.88707523e-02,-2.09968500e-02,-1.43798264e-02,
            -9.21023265e-03,-5.45682618e-03,-2.91365804e-03,4.31359542e-04,7.11080385e-03,
            1.62254795e-02,1.80083085e-02,2.06083879e-02,2.33864281e-02,2.22450998e-02,
            9.92760155e-03,-3.15849436e-03,-1.91246439e-02,-4.70725968e-02,-8.24990794e-02,
            -1.26085043e-01,-1.84414715e-01,-2.49642506e-01,-2.85219312e-01,-2.89194971e-01,
            -5.55790588e-03,-1.68435927e-02,-1.65715497e-02,-1.77095979e-02,6.12598029e-04,
            -1.59703959e-02,-9.49784182e-03,-5.05089248e-03,-1.25619797e-02,1.19493812e-01,
            9.94370207e-02,1.62150543e-02,3.92354233e-03,1.16078677e-02,2.37666871e-02,
            1.25524420e-02,1.19312750e-02,1.21465206e-01,1.29949495e-01,5.84293865e-02,
            2.17845347e-02,5.49262483e-03,-5.78504391e-02,-6.87082186e-02,-1.94614276e-01,
            -2.43550673e-01,-2.09892288e-01,-2.15246588e-01,-2.47645363e-01,-1.22211479e-01,
            -6.40941039e-03,-5.09444624e-03,-2.06243736e-03,2.45223753e-03,1.47989753e-03,
            6.05338346e-03,5.17949648e-03,-2.49505916e-04,-1.09036360e-02,-1.67862643e-02,
            -2.32890807e-02,-2.81249788e-02,-2.98385751e-02,-2.80058812e-02,-3.05829402e-02,
            -4.19109054e-02,-4.03582044e-02,-3.56240757e-02,-2.94503048e-02,-1.95147805e-02,
            2.09996034e-03,1.61118880e-02,1.02930926e-02,8.14868417e-03,-2.36901697e-02,
            -6.93480223e-02,-1.14125445e-01,-1.53635189e-01,-1.86433330e-01,-1.56674936e-01,
            -2.15121791e-01,-2.05895454e-01,-2.10760713e-01,-1.82697743e-01,-1.22185484e-01,
            -1.19546115e-01,-1.00594096e-01,-3.60947400e-02,-3.75742018e-02,-8.42852518e-02,
            -9.05601531e-02,-5.21257855e-02,-5.12899123e-02,-4.31744345e-02,7.71383336e-03,
            2.62768287e-02,1.28300875e-01,1.33333236e-01,1.82541221e-01,1.75475210e-01,
            3.55406180e-02,9.25751403e-03,1.55867368e-03,-1.45677701e-01,-1.16370983e-01,
            -2.17487961e-01,6.20246939e-02,-2.53182143e-01,-5.03766462e-02,-9.28482786e-02,
            -3.89083207e-01,-3.87827575e-01,-3.84099841e-01,-3.77875715e-01,-3.67962897e-01,
            -3.55788201e-01,-3.39977056e-01,-3.21502447e-01,-3.02712590e-01,-2.85070091e-01,
            -2.71957815e-01,-2.67249018e-01,-2.73873121e-01,-2.90816814e-01,-3.09788227e-01,
            -2.84314036e-01,-2.61242211e-01,-2.27226824e-01,-1.78006500e-01,-1.10188149e-01,
            -1.89676303e-02,3.88241410e-02,1.05179287e-01,1.76667675e-01,2.67347157e-01,
            3.82778823e-01,5.06400943e-01,6.03568912e-01,6.41985595e-01,5.77203453e-01,
            6.08761096e-03,4.42459434e-03,3.82321677e-03,9.16303659e-04,2.53862678e-03,
            4.05369047e-03,8.62259045e-03,1.52226053e-02,2.11402196e-02,2.98637208e-02,
            3.40527557e-02,2.88598184e-02,1.26605351e-02,-7.57441996e-03,-2.41546575e-02,
            -6.81944713e-02,-8.41216668e-02,-9.18277726e-02,-7.84581825e-02,-4.98757809e-02,
            -3.41279767e-02,-5.33670560e-02,-7.08023831e-02,-1.35813847e-01,-2.13713303e-01,
            -2.86947459e-01,-3.79182190e-01,-4.67347950e-01,-4.33799624e-01,-3.71991336e-01,
            2.31611446e-01,2.33528852e-01,2.38211125e-01,2.45450601e-01,2.54091710e-01,
            2.63227761e-01,2.72584647e-01,2.81426728e-01,2.88545966e-01,2.94253051e-01,
            2.97647387e-01,2.98560411e-01,2.97310829e-01,2.95061141e-01,2.99707770e-01,
            3.43712360e-01,3.57105404e-01,3.68136317e-01,3.72006238e-01,3.58657569e-01,
            3.08121234e-01,2.58337706e-01,1.93113536e-01,1.16261855e-01,2.92750988e-02,
            -6.47991523e-02,-1.61433399e-01,-2.46078014e-01,-3.08125168e-01,-3.26647013e-01,
            2.04931676e-01,2.06188753e-01,2.10654497e-01,2.16308951e-01,2.23537937e-01,
            2.31893957e-01,2.38624662e-01,2.41138786e-01,2.37186700e-01,2.25476488e-01,
            2.11334825e-01,1.98570147e-01,1.86880201e-01,1.72311351e-01,1.39991060e-01,
            5.62534481e-02,2.82891653e-02,-5.91359055e-03,-3.51119637e-02,-4.74342369e-02,
            -2.85856947e-02,4.25150152e-03,5.87975644e-02,1.36089280e-01,2.34206513e-01,
            3.47320437e-01,4.67458189e-01,5.70421457e-01,6.37141109e-01,6.37364209e-01,
            8.46504793e-02,9.36924517e-02,1.03566706e-01,1.24107487e-01,1.33108914e-01,
            1.50469258e-01,1.58142447e-01,1.57114804e-01,1.62612334e-01,1.37806147e-01,
            1.29590049e-01,1.39211714e-01,1.57408595e-01,1.78988501e-01,1.80342644e-01,
            1.11184798e-01,9.58241522e-02,6.49952441e-02,1.88956130e-02,-2.67353412e-02,
            -7.86409006e-02,-1.00149401e-01,-1.43398821e-01,-1.35144278e-01,-1.08596429e-01,
            -7.52926171e-02,-3.54020558e-02,5.51894568e-02,9.45320353e-02,1.54579148e-01,
            1.59981251e-01,1.61231562e-01,1.68063253e-01,1.76142886e-01,1.83853984e-01,
            2.04938501e-01,2.22132623e-01,2.35323623e-01,2.46888503e-01,2.49680594e-01,
            2.45403960e-01,2.37612054e-01,2.22882777e-01,2.01028958e-01,1.63570821e-01,
            1.08647816e-01,9.67619419e-02,8.92416760e-02,9.59050953e-02,1.22274093e-01,
            1.79102078e-01,2.07125962e-01,1.63428605e-01,1.82768226e-01,1.25791937e-01,
            -3.41900513e-02,-1.54483616e-01,-2.51505494e-01,-4.36190814e-01,-5.20686150e-01,
            -3.15874755e-01,-3.17716718e-01,-3.22118074e-01,-3.28996629e-01,-3.38197410e-01,
            -3.45397204e-01,-3.52952689e-01,-3.58583391e-01,-3.58783841e-01,-3.53053957e-01,
            -3.45794350e-01,-3.39669228e-01,-3.36434692e-01,-3.34096313e-01,-3.26797426e-01,
            -2.15185761e-01,-1.52236819e-01,-6.27723709e-02,5.66547401e-02,1.99670717e-01,
            3.50631893e-01,4.24489081e-01,4.80986297e-01,5.34991980e-01,5.73101938e-01,
            5.93990624e-01,6.08664274e-01,5.96800208e-01,5.41471601e-01,4.41748112e-01,
            -3.96763794e-02,-3.77752446e-02,-3.29187177e-02,-2.48462725e-02,-1.40535329e-02,
            -1.84709090e-03,1.21729756e-02,2.61145309e-02,3.74687612e-02,4.55550551e-02,
            5.12245744e-02,5.45604266e-02,5.56293502e-02,5.44957966e-02,5.13619110e-02,
            1.65985990e-02,-5.21680480e-03,-3.97040956e-02,-9.07765105e-02,-1.59363762e-01,
            -2.39624709e-01,-2.85274714e-01,-3.29192519e-01,-3.80336344e-01,-4.27826703e-01,
            -4.62984324e-01,-4.86690491e-01,-4.93340015e-01,-4.66649026e-01,-4.23038751e-01,
            -1.08273089e-01,-1.08447820e-01,-1.09927766e-01,-1.11774325e-01,-1.14709131e-01,
            -1.18826456e-01,-1.21396907e-01,-1.20897457e-01,-1.15272850e-01,-1.04193516e-01,
            -9.16766673e-02,-8.13926607e-02,-7.29533806e-02,-6.27728328e-02,-3.38584073e-02,
            4.58580665e-02,7.74233863e-02,1.21403679e-01,1.66870847e-01,1.99767038e-01,
            2.17190027e-01,2.22328186e-01,2.27107376e-01,2.32409462e-01,2.46318504e-01,
            2.74080753e-01,3.10911536e-01,3.60699922e-01,4.27242309e-01,5.28212130e-01,
            1.97505891e-01,1.94767565e-01,1.87443957e-01,1.76164493e-01,1.61543876e-01,
            1.44860327e-01,1.26429752e-01,1.08066693e-01,9.31088552e-02,8.28203857e-02,
            7.70447105e-02,7.62633085e-02,8.12336653e-02,9.08627734e-02,1.05386630e-01,
            1.25090092e-01,1.28637210e-01,1.38008550e-01,1.55885428e-01,1.84821606e-01,
            2.29770064e-01,2.68769324e-01,3.18470657e-01,3.77478540e-01,4.38547701e-01,
            4.93873268e-01,5.40080547e-01,5.65421641e-01,5.65049052e-01,5.27027965e-01,
        };
    k2c_tensor dense_3_kernel = {&dense_3_kernel_array[0],2,600,{20,30, 1, 1, 1}};
    float dense_3_bias_array[30] = {
        -3.09947785e-03,-4.28546639e-03,-7.48062972e-03,-1.22366482e-02,-1.79917123e-02,
            -2.47263908e-02,-3.13093029e-02,-3.64909843e-02,-3.81562300e-02,-3.66729870e-02,
            -3.35492864e-02,-3.03268507e-02,-2.68420596e-02,-2.15611868e-02,-7.09923357e-03,
            1.72420349e-02,1.92929115e-02,2.15849150e-02,2.12728269e-02,1.56617705e-02,
            4.59910138e-03,-3.90052912e-03,-1.32657513e-02,-2.37478949e-02,-3.43024470e-02,
            -4.46742885e-02,-5.54638579e-02,-6.65832609e-02,-7.63211548e-02,-8.47661868e-02,
        };
    k2c_tensor dense_3_bias = {&dense_3_bias_array[0],1,30,{30, 1, 1, 1, 1}};
    float dense_3_fwork[620] = {0};


    k2c_dense(&dense_1_output,input_1_input,&dense_1_kernel,
              &dense_1_bias,k2c_relu,dense_1_fwork);
    k2c_dense(&dense_2_output,&dense_1_output,&dense_2_kernel,
              &dense_2_bias,k2c_relu,dense_2_fwork);
    k2c_lstm(&lstm_1_output,&dense_2_output,lstm_1_state,&lstm_1_kernel,
             &lstm_1_recurrent_kernel,&lstm_1_bias,lstm_1_fwork,
             lstm_1_go_backwards,lstm_1_return_sequences,
             k2c_hard_sigmoid,k2c_relu);
    k2c_dense(dense_3_output,&lstm_1_output,&dense_3_kernel,
              &dense_3_bias,k2c_linear,dense_3_fwork);

}

void example_initialize() {

}

void example_terminate() {

}

