#include <math.h> 
 #include <string.h> 
#include "./include/k2c_include.h" 
#include "./include/k2c_tensor_include.h" 

 


void foobar_1(k2c_tensor* keras_tensor_10_input, k2c_tensor* keras_tensor_11_output) { 

float lstm_fwork[80] = {0}; 
int lstm_go_backwards = 0;
int lstm_return_sequences = 0;
float lstm_state[20] = {0}; 
float lstm_kernel_array[320] = {
-2.22778916e-02f,+3.46299142e-01f,+1.99338645e-01f,-2.28751183e-01f,+1.75193220e-01f,
-1.09499201e-01f,+3.63355875e-03f,+3.26701134e-01f,+2.54866868e-01f,-1.64489955e-01f,
+1.38519168e-01f,-1.86930627e-01f,+2.18476504e-01f,+4.42255437e-02f,-8.19040537e-02f,
+2.69892544e-01f,+3.46084982e-01f,+1.77799076e-01f,+3.15250903e-01f,+7.84943700e-02f,
+9.41002667e-02f,-2.39649922e-01f,+9.59067643e-02f,-3.05124283e-01f,-6.46654963e-02f,
+2.12704927e-01f,-2.87172526e-01f,+2.04147547e-01f,-1.61321029e-01f,+3.20323378e-01f,
-2.61547267e-02f,+2.71400005e-01f,-8.78765285e-02f,+1.19261175e-01f,-2.50384569e-01f,
-8.32014084e-02f,-6.77047670e-02f,+2.98756093e-01f,-3.41255009e-01f,+1.37111634e-01f,
+2.46133775e-01f,-2.35716283e-01f,-2.93081999e-03f,+1.45527005e-01f,-1.49275541e-01f,
-1.78791568e-01f,+2.01043099e-01f,+2.07696408e-01f,-3.98777425e-02f,-1.36579141e-01f,
+2.70194441e-01f,+2.67516047e-01f,-2.38877028e-01f,+2.33048648e-01f,+2.67571539e-01f,
+2.82739788e-01f,-1.31333366e-01f,-2.44538367e-01f,-3.11449021e-01f,-3.16770732e-01f,
-1.94529027e-01f,-1.83279783e-01f,+3.41454893e-01f,+2.54407972e-01f,-2.13430628e-01f,
-3.31265211e-01f,-2.11980045e-02f,-2.22285926e-01f,-8.44592452e-02f,-6.33760393e-02f,
+1.23023361e-01f,+1.52709514e-01f,+1.89363509e-01f,+4.14380431e-03f,-3.34697813e-01f,
-1.67898208e-01f,+1.90750808e-01f,+1.83143467e-01f,+2.91476816e-01f,-2.67995119e-01f,
+2.95534939e-01f,-2.30325609e-01f,-1.10421881e-01f,-2.92039722e-01f,-2.65029907e-01f,
-1.42826900e-01f,-1.41680583e-01f,-3.20239753e-01f,-2.32338637e-01f,+3.09002668e-01f,
-1.69827342e-02f,-3.35412532e-01f,+2.26895779e-01f,+3.15767556e-01f,+2.14376003e-01f,
+1.70869917e-01f,-8.53031874e-02f,-3.64528000e-02f,-3.33664864e-01f,+1.48624688e-01f,
-1.97149038e-01f,+1.85452133e-01f,+1.32733226e-01f,-4.14910913e-03f,+3.02106142e-02f,
+1.03586912e-02f,+2.50957578e-01f,+1.32839203e-01f,-3.40811044e-01f,-1.98295951e-01f,
-2.06901431e-02f,+9.80947614e-02f,+1.92018360e-01f,+1.52711123e-01f,-3.51914883e-01f,
+3.40169400e-01f,-8.84591639e-02f,+1.90710753e-01f,+1.45550340e-01f,+8.43118131e-02f,
+3.11041802e-01f,-1.20984122e-01f,+3.95445228e-02f,-1.26517922e-01f,-2.99204528e-01f,
+1.46793753e-01f,-2.43757814e-01f,+1.27256513e-01f,-2.80125558e-01f,-3.26220989e-01f,
-3.52861255e-01f,+3.38350743e-01f,+1.95869297e-01f,+3.13010722e-01f,+2.00892359e-01f,
+3.24206054e-02f,-1.95519328e-02f,+3.40048522e-01f,+2.23353773e-01f,+1.95648044e-01f,
+3.30013722e-01f,+1.88676625e-01f,-1.69150561e-01f,+2.90394396e-01f,-1.75934508e-01f,
+2.79943556e-01f,+2.06151515e-01f,-5.22789359e-02f,-2.74956763e-01f,+2.26419955e-01f,
-1.27363980e-01f,-9.48883295e-02f,+3.00111860e-01f,+2.90393621e-01f,+1.27782077e-01f,
+3.14773411e-01f,+3.48453552e-01f,-8.97154212e-03f,-2.75634408e-01f,-2.10861564e-02f,
+2.42742509e-01f,+2.77413517e-01f,-4.22851741e-02f,+3.43279243e-02f,-1.84778616e-01f,
-3.04259539e-01f,+3.27792913e-01f,-7.48096406e-02f,-3.22521925e-02f,+2.11739630e-01f,
+3.39802653e-01f,+3.05428654e-01f,+1.69327825e-01f,-1.03837773e-01f,+2.47052908e-02f,
+1.50491297e-02f,+1.46701485e-01f,-1.60951898e-01f,+1.19000018e-01f,+2.68276244e-01f,
+2.55001932e-01f,-6.42947555e-02f,-1.49238870e-01f,+2.06178576e-01f,-1.71342447e-01f,
+3.24773341e-01f,+1.94167346e-01f,+9.04591084e-02f,+1.27631724e-02f,-5.93688190e-02f,
-3.28239471e-01f,+9.10167992e-02f,-1.14798397e-01f,-1.64893731e-01f,-1.32432565e-01f,
-2.09290713e-01f,+2.36338288e-01f,+1.78581864e-01f,+6.34504855e-02f,+1.84967667e-01f,
-1.53010935e-01f,-5.04333377e-02f,-1.64896339e-01f,+1.66012913e-01f,+4.31491733e-02f,
-1.48495153e-01f,+2.97504038e-01f,-8.36129487e-02f,-8.16302598e-02f,-3.98734212e-03f,
+2.81450897e-01f,-2.70429015e-01f,-1.91978216e-01f,-1.34690285e-01f,-1.28080562e-01f,
+2.29980946e-02f,+1.00610167e-01f,+1.17090434e-01f,-1.37712553e-01f,-7.50169158e-02f,
+2.35784799e-01f,-1.50189698e-01f,-4.87005115e-02f,+3.26876611e-01f,-2.84239590e-01f,
+1.60941273e-01f,-1.18779838e-02f,+2.27764994e-01f,-2.40144134e-01f,-1.36683494e-01f,
-2.69669026e-01f,+5.66124916e-03f,-1.37379929e-01f,+3.36344570e-01f,-8.30646157e-02f,
-3.48516494e-01f,-1.49194196e-01f,-6.81102276e-03f,-3.25796068e-01f,-1.86189771e-01f,
+3.46833497e-01f,-1.84673414e-01f,+1.80417866e-01f,-3.23067725e-01f,+3.47837418e-01f,
+2.81038076e-01f,-1.39803037e-01f,-9.02401805e-02f,+4.49656248e-02f,+1.05921507e-01f,
+1.80391639e-01f,-2.54745990e-01f,+2.10444778e-01f,+1.31360263e-01f,+2.48909324e-01f,
-3.43940377e-01f,-2.97064722e-01f,+1.55673593e-01f,-3.21786970e-01f,+1.43068433e-02f,
-7.21856654e-02f,-1.11484572e-01f,-3.51466596e-01f,+9.99904573e-02f,+2.33140498e-01f,
-7.09828734e-02f,-3.18881273e-01f,+1.12295389e-01f,+1.70791417e-01f,-1.16789252e-01f,
+2.01902002e-01f,-1.96032405e-01f,-1.18667066e-01f,+2.68163949e-01f,-8.60159099e-02f,
-1.79829806e-01f,-2.40961701e-01f,-2.13978365e-01f,+3.08074802e-01f,+1.54768020e-01f,
-3.48557800e-01f,-2.30175227e-01f,-3.04991961e-01f,-3.48413587e-01f,+1.36898875e-01f,
+1.32943302e-01f,+2.25006789e-01f,-8.85930061e-02f,-2.80618936e-01f,+2.19569206e-02f,
+2.78592438e-01f,-1.29665032e-01f,+4.59421575e-02f,+1.17878228e-01f,+1.52340442e-01f,
-5.57374954e-03f,+5.47801852e-02f,+3.53228450e-02f,-3.47394645e-02f,+3.17730010e-02f,
+1.96135074e-01f,+1.71297491e-02f,+3.97858620e-02f,+1.36966646e-01f,+6.90779090e-03f,
-1.85472369e-02f,+2.40482390e-02f,+1.71028882e-01f,+7.73457885e-02f,-2.85394430e-01f,
+2.22939938e-01f,-2.19165131e-01f,-3.14540833e-01f,+1.10724479e-01f,+1.21960431e-01f,
+8.79243910e-02f,-7.17545152e-02f,-1.23224229e-01f,-1.08140633e-01f,+2.20185608e-01f,
}; 
k2c_tensor lstm_kernel = { &lstm_kernel_array[0], 2, 320, { 32,10, 1, 1, 1 } }; 
float lstm_recurrent_kernel_array[400] = {
-1.40191317e-02f,-9.70105827e-02f,-1.91618457e-01f,+1.58345979e-02f,-2.19055504e-01f,
+2.13201150e-01f,+1.09545536e-01f,+1.58206224e-01f,-2.83487052e-01f,+2.00367556e-03f,
+2.22104535e-01f,-3.06604858e-02f,+3.12086225e-01f,+1.38309002e-01f,+1.12391748e-02f,
-9.25810337e-02f,-3.36326882e-02f,+5.38409986e-02f,-9.10562500e-02f,-3.89183089e-02f,
+2.30602503e-01f,-4.58793789e-02f,+2.44061068e-01f,+6.20293468e-02f,-1.87588513e-01f,
+1.81708515e-01f,-5.44807613e-02f,+2.22366616e-01f,-1.78201169e-01f,-5.50215505e-02f,
+1.47421882e-01f,+1.66777089e-01f,-1.30395591e-01f,+1.84960559e-01f,+3.37441266e-02f,
+4.10911858e-01f,-1.67796731e-01f,-4.87796664e-02f,+1.54471040e-01f,+8.54018629e-02f,
+1.68920040e-01f,-1.73156604e-01f,-1.44118369e-01f,+1.24617606e-01f,+4.58665565e-02f,
-4.45768237e-05f,-3.13584775e-01f,+4.10373360e-02f,-7.06827044e-02f,-1.63508400e-01f,
-1.98331535e-01f,-1.66390389e-01f,-2.49691904e-01f,+3.06254536e-01f,+1.04587927e-01f,
-1.84507519e-02f,-1.20422915e-01f,-8.69881883e-02f,+8.49950165e-02f,+1.00192145e-01f,
-1.15171097e-01f,+6.70252442e-02f,+1.66652322e-01f,+6.19030837e-03f,-9.90073383e-02f,
+1.64839864e-01f,-1.02975667e-02f,-8.10417011e-02f,-1.36050612e-01f,-2.30375409e-01f,
+1.18062012e-01f,-4.62839864e-02f,+1.67596206e-01f,-9.57928002e-02f,-1.36455953e-01f,
-3.35277505e-02f,+1.50749594e-01f,+7.05462471e-02f,+8.79506320e-02f,-6.07935674e-02f,
+9.96405855e-02f,+1.29756061e-02f,+2.23433688e-01f,-1.74087733e-01f,-4.85248491e-03f,
+2.51639545e-01f,+1.43428221e-01f,-4.75555435e-02f,+1.07159942e-01f,+6.88087419e-02f,
-3.50306422e-01f,+1.39333680e-03f,-3.58184837e-02f,-8.63336772e-02f,-4.37223166e-03f,
+2.12283194e-01f,+1.40797924e-02f,+1.99937776e-01f,-1.55360550e-02f,+8.21412355e-02f,
-1.12921230e-01f,+2.73283094e-01f,-3.75327803e-02f,+1.04412876e-01f,+1.38552897e-02f,
+6.58680275e-02f,-5.52106857e-01f,+2.09965706e-01f,+1.85553562e-02f,+1.51667088e-01f,
+2.45049074e-01f,+1.15286991e-01f,+9.00179371e-02f,+3.81221659e-02f,-2.59642065e-01f,
-1.60078540e-01f,-1.54908076e-02f,+2.42678113e-02f,+6.52850047e-02f,-2.73617730e-02f,
-3.46656710e-01f,+1.64922550e-01f,+6.18695877e-02f,-7.92169124e-02f,+2.39172265e-01f,
-3.15470546e-02f,+2.22323775e-01f,+5.84904030e-02f,-1.15973584e-01f,+1.53350368e-01f,
-2.68538177e-01f,-1.55524015e-01f,-1.92388296e-01f,-1.49459019e-01f,-3.01787913e-01f,
-1.73903201e-02f,+1.00226894e-01f,-3.50147665e-01f,-5.22577725e-02f,-4.08261865e-02f,
+8.60415101e-02f,-1.35192499e-02f,+8.75341222e-02f,+5.39961271e-02f,-1.91587970e-01f,
+9.58014876e-02f,+1.30403191e-02f,+3.81929219e-01f,-1.31361755e-02f,-2.73248225e-01f,
-2.31645748e-01f,+3.32019925e-01f,+1.26824230e-01f,+7.97448605e-02f,-8.12867507e-02f,
+1.35389358e-01f,+5.51615506e-02f,-6.97323382e-02f,-4.25441526e-02f,+1.77134067e-01f,
+4.26243879e-02f,+1.90760970e-01f,-2.70354003e-01f,+6.65123388e-02f,+1.09773621e-01f,
+1.62906080e-01f,+1.68597147e-01f,+4.59120721e-02f,+2.15915039e-01f,+2.01284498e-01f,
+5.71210757e-02f,+1.52673140e-01f,+1.19225308e-01f,+1.25335008e-01f,+1.09336570e-01f,
+1.97715998e-01f,+1.17146768e-01f,-2.10862160e-01f,+8.34933110e-03f,-1.11949161e-01f,
-3.82567383e-03f,-9.79134440e-02f,+2.76053157e-02f,+1.23363554e-01f,-2.81920340e-02f,
-1.25057042e-01f,+3.55974995e-02f,+3.17941368e-01f,-3.88035029e-02f,-4.74138334e-02f,
-4.17494476e-02f,-5.03308028e-02f,+2.82540083e-01f,-1.27566829e-01f,-3.33371758e-02f,
-1.06417410e-01f,+8.43794495e-02f,+6.81519508e-03f,-2.34858871e-01f,+3.18055570e-01f,
-3.74144241e-02f,-1.19918115e-01f,-1.79527968e-01f,+1.21307798e-01f,-8.77906159e-02f,
+4.42791134e-02f,+2.43429258e-01f,+8.22725147e-02f,+8.06998014e-02f,+1.41688183e-01f,
+3.39742362e-01f,+9.64173600e-02f,-1.40682571e-02f,-7.67266825e-02f,+1.65079087e-01f,
-2.81314999e-01f,+1.62570745e-01f,-9.38824043e-02f,+3.96613777e-02f,-1.20211661e-01f,
-8.88529569e-02f,+4.79998663e-02f,+1.26889527e-01f,-1.79407418e-01f,-6.01156652e-02f,
-1.22805692e-01f,-5.97283468e-02f,-2.39218116e-01f,-1.41892403e-01f,+2.82232821e-01f,
+1.49776340e-02f,+1.32266983e-01f,-2.39671186e-01f,-3.42735387e-02f,-5.34387156e-02f,
-1.49989733e-02f,+1.82521224e-01f,+2.21769046e-03f,+1.89845905e-01f,-5.80223687e-02f,
-1.25979930e-01f,-1.20609477e-02f,-1.72342323e-02f,-9.67244059e-02f,+1.16946638e-01f,
+7.28579238e-02f,+1.02569863e-01f,+3.78104709e-02f,+4.37973499e-01f,+1.64469723e-02f,
+1.93676338e-01f,-8.07940364e-02f,-5.66301495e-02f,-1.87562570e-01f,+5.44072762e-02f,
+3.48577686e-02f,-2.31225610e-01f,+2.36290377e-02f,-1.28108546e-01f,-1.00418560e-01f,
+4.49143313e-02f,-6.32391647e-02f,-2.49842089e-02f,+1.11895263e-01f,+8.03850368e-02f,
-2.80192435e-01f,-2.38509886e-02f,-1.28723279e-01f,+2.43248403e-01f,-1.40020072e-01f,
-2.62949973e-01f,+2.05699839e-02f,-3.73886555e-01f,-3.46226454e-01f,-1.26390561e-01f,
-1.85576767e-01f,+1.09605700e-01f,+4.75349814e-01f,+7.91945402e-03f,-6.62776977e-02f,
-1.82414696e-01f,+1.27486899e-01f,-1.60227299e-01f,-1.98413461e-01f,+1.45121068e-01f,
+2.44100317e-01f,+1.00868847e-02f,-2.22242564e-01f,-1.79946870e-01f,-4.90551367e-02f,
+1.23272017e-01f,+1.56825572e-01f,-8.89862329e-02f,-1.59333184e-01f,-1.10155210e-01f,
-6.64016157e-02f,+6.35584891e-02f,-9.03413147e-02f,+2.85330504e-01f,-9.52752456e-02f,
+2.76169069e-02f,+1.57458393e-03f,-2.93957498e-02f,-2.12598331e-02f,-2.16329813e-01f,
+9.91174430e-02f,+3.42346951e-02f,+1.99371025e-01f,-1.39042037e-02f,+3.50426957e-02f,
-1.59313351e-01f,-9.72551852e-02f,+2.16184277e-03f,-2.65549514e-02f,-4.04842138e-01f,
-2.42668539e-01f,+1.56574354e-01f,+1.32814556e-01f,-1.42046049e-01f,-1.40585795e-01f,
+3.49731520e-02f,-3.26875597e-02f,-4.94976491e-02f,-6.76616356e-02f,+1.14742324e-01f,
+2.62246579e-02f,-4.51155640e-02f,-1.16694674e-01f,-2.93393731e-01f,-2.40295246e-01f,
+1.78747416e-01f,+1.04816601e-01f,-7.40293711e-02f,-1.33340303e-02f,-2.78575085e-02f,
+4.86458018e-02f,-4.13713977e-02f,+2.42719516e-01f,-1.01894915e-01f,-9.27198902e-02f,
-8.69190246e-02f,-9.59756225e-02f,-1.48516685e-01f,-1.07176490e-01f,+3.70031327e-01f,
-6.82937801e-02f,+1.53693417e-02f,-1.40578717e-01f,-1.47595793e-01f,+6.34691939e-02f,
-4.32691455e-01f,+1.56612739e-01f,+1.62446648e-01f,-8.99318233e-02f,+1.25171617e-01f,
-7.68629462e-03f,+1.58391297e-01f,+1.31496698e-01f,-4.45561968e-02f,-2.05781795e-02f,
+9.62652490e-02f,+3.20633739e-01f,+1.24582373e-01f,+2.28067547e-01f,+2.03174263e-01f,
-2.73770958e-01f,-7.35383183e-02f,+6.09069094e-02f,+9.01104063e-02f,+2.32597619e-01f,
+1.39759872e-02f,-8.50467831e-02f,+1.81506127e-01f,-1.68765247e-01f,+4.18869182e-02f,
-7.22332224e-02f,+3.83248217e-02f,-1.52470702e-02f,+9.39092711e-02f,+3.20998579e-02f,
-3.06051075e-01f,+1.49947163e-02f,-5.36167026e-02f,+1.00319475e-01f,+1.12945400e-01f,
-4.32352200e-02f,-1.27941042e-01f,+4.27894294e-01f,+2.31797621e-01f,+7.07752109e-02f,
-5.16432077e-02f,-2.99790144e-01f,-1.25554234e-01f,+1.15880333e-01f,-5.74284345e-02f,
-1.13266677e-01f,+3.52347493e-02f,-2.68352389e-01f,+2.68829286e-01f,+1.55844271e-01f,
}; 
k2c_tensor lstm_recurrent_kernel = { &lstm_recurrent_kernel_array[0], 2, 400, { 40,10, 1, 1, 1 } }; 
float lstm_bias_array[40] = {
+0.00000000e+00f,+0.00000000e+00f,+0.00000000e+00f,+0.00000000e+00f,+0.00000000e+00f,
+0.00000000e+00f,+0.00000000e+00f,+0.00000000e+00f,+0.00000000e+00f,+0.00000000e+00f,
+1.00000000e+00f,+1.00000000e+00f,+1.00000000e+00f,+1.00000000e+00f,+1.00000000e+00f,
+1.00000000e+00f,+1.00000000e+00f,+1.00000000e+00f,+1.00000000e+00f,+1.00000000e+00f,
+0.00000000e+00f,+0.00000000e+00f,+0.00000000e+00f,+0.00000000e+00f,+0.00000000e+00f,
+0.00000000e+00f,+0.00000000e+00f,+0.00000000e+00f,+0.00000000e+00f,+0.00000000e+00f,
+0.00000000e+00f,+0.00000000e+00f,+0.00000000e+00f,+0.00000000e+00f,+0.00000000e+00f,
+0.00000000e+00f,+0.00000000e+00f,+0.00000000e+00f,+0.00000000e+00f,+0.00000000e+00f,
}; 
k2c_tensor lstm_bias = { &lstm_bias_array[0], 1, 40, { 40, 1, 1, 1, 1 } }; 

 
k2c_lstm(keras_tensor_11_output,keras_tensor_10_input,lstm_state,&lstm_kernel, 
	&lstm_recurrent_kernel,&lstm_bias,lstm_fwork, 
	lstm_go_backwards,lstm_return_sequences, 
	k2c_silu,k2c_gelu); 

 } 

void foobar_1_initialize() { 

} 

void foobar_1_terminate() { 

} 

